<?xml version="1.0"?>
<opencv_storage>
<my_svm type_id="opencv-ml-svm">
  <svm_type>C_SVC</svm_type>
  <kernel><type>RBF</type>
    <gamma>2.5000000000000000e-001</gamma></kernel>
  <C>2.8284271247500001e+000</C>
  <term_criteria><epsilon>1.1920928955078125e-007</epsilon>
    <iterations>1000</iterations></term_criteria>
  <var_all>327</var_all>
  <var_count>327</var_count>
  <class_count>7</class_count>
  <class_labels type_id="opencv-matrix">
    <rows>1</rows>
    <cols>7</cols>
    <dt>i</dt>
    <data>
      1 2 3 4 5 6 7</data></class_labels>
  <sv_total>54</sv_total>
  <support_vectors>
    <_>
      8.42278838e-001 7.74046183e-001 -2.37127960e-001 -7.39130437e-001
      -8.26086998e-001 -7.21739173e-001 -9.65217412e-001
      -1.30434811e-001 -9.82608676e-001 -9.65217412e-001 -1.
      2.60869265e-002 -1. -1. -1. -1. -1. -9.65217412e-001 -1.
      -3.91304374e-001 -1. -9.82608676e-001 -1. -1. -9.82608676e-001 -1.
      -1. -9.82608676e-001 -1. -9.65217412e-001 -7.91304350e-001 -1. -1.
      -1. -9.30434763e-001 -9.82608676e-001 -1. -7.39130437e-001
      -5.30434847e-001 -5.65217376e-001 -6.69565201e-001
      -7.39130437e-001 -9.82608676e-001 -5.47826111e-001
      -9.47826087e-001 -9.13043499e-001 -1. -5.47826111e-001
      -9.30434763e-001 -9.82608676e-001 -9.47826087e-001
      -9.47826087e-001 -9.82608676e-001 -9.82608676e-001
      -9.82608676e-001 -4.08695698e-001 -1. -9.47826087e-001 -1. -1.
      -9.65217412e-001 -9.82608676e-001 -1. -9.30434763e-001
      -9.82608676e-001 -9.65217412e-001 -7.21739173e-001 -1. -1. -1.
      -9.65217412e-001 -9.82608676e-001 -9.65217412e-001
      -5.82608700e-001 -4.78260875e-001 -9.47826087e-001
      -8.95652175e-001 -9.30434763e-001 -1. -4.60869610e-001 -1. -1. -1.
      -7.21739173e-001 -9.65217412e-001 -9.82608676e-001 -1.
      -9.65217412e-001 -1. -1. -8.95652175e-001 -2.52173960e-001 -1. -1.
      -1. -1. -1. -1. -1. -1. -1. -1. -9.82608676e-001 -1. -1. -1.
      -9.47826087e-001 -1. -9.82608676e-001 -6.17391348e-001
      9.99999881e-001 -5.65217376e-001 -5.30434847e-001 -7.39130437e-001
      -9.65217412e-001 -3.91304374e-001 -9.65217412e-001 -1.
      -9.65217412e-001 -2.17391312e-001 -9.47826087e-001 -1. -1. -1.
      -9.82608676e-001 -9.65217412e-001 -9.82608676e-001
      -3.39130461e-001 -1. -9.82608676e-001 -1. -1. -9.65217412e-001 -1.
      -1. -9.65217412e-001 -9.82608676e-001 -9.82608676e-001
      -8.26086998e-001 -1. -9.82608676e-001 -1. -9.65217412e-001 -1.
      -9.47826087e-001 -7.04347849e-001 -6.86956525e-001
      -6.34782612e-001 -4.95652199e-001 -7.04347849e-001
      -8.95652175e-001 -5.30434847e-001 -9.82608676e-001 -1.
      -9.47826087e-001 -5.30434847e-001 -9.47826087e-001
      -9.82608676e-001 -1. -9.13043499e-001 -9.47826087e-001 -1.
      -9.13043499e-001 -5.47826111e-001 -1. -9.47826087e-001
      -9.82608676e-001 -1. -9.65217412e-001 -9.82608676e-001 -1.
      -9.47826087e-001 -9.82608676e-001 -9.82608676e-001
      -7.04347849e-001 -1. -1. -1. -9.13043499e-001 -9.65217412e-001
      -9.82608676e-001 -6.17391348e-001 -6.00000024e-001
      -8.60869586e-001 -7.39130437e-001 -7.91304350e-001
      -9.82608676e-001 -6.69565201e-001 -9.82608676e-001 -1. -1.
      -5.47826111e-001 -8.78260851e-001 -9.82608676e-001
      -9.65217412e-001 -1. -9.82608676e-001 -9.82608676e-001 -1.
      -3.73913050e-001 -1. -1. -1. -1. -9.82608676e-001 -1. -1.
      -9.82608676e-001 -1. -9.82608676e-001 -8.60869586e-001 -1. -1. -1.
      -9.65217412e-001 -1. -1. -8.08695674e-001 7.73912907e-001
      -5.65217376e-001 -7.39130437e-001 -7.91304350e-001 -1.
      -1.47826135e-001 -9.82608676e-001 -9.82608676e-001
      -9.82608676e-001 -1.82608724e-001 -9.82608676e-001
      -9.82608676e-001 -1. -9.82608676e-001 -9.82608676e-001
      -9.82608676e-001 -9.82608676e-001 -4.08695698e-001 -1.
      -9.65217412e-001 -1. -1. -9.13043499e-001 -1. -1. -1.
      -9.82608676e-001 -9.82608676e-001 -6.34782612e-001 -1. -1. -1.
      -9.65217412e-001 -1. -1. -6.69565201e-001 -7.56521761e-001
      -6.52173936e-001 -4.08695698e-001 -6.00000024e-001
      -9.65217412e-001 -5.82608700e-001 -9.65217412e-001
      -9.13043499e-001 -9.47826087e-001 -4.78260875e-001
      -9.82608676e-001 -9.65217412e-001 -9.82608676e-001
      -9.47826087e-001 -9.82608676e-001 -9.47826087e-001
      -9.13043499e-001 -6.34782612e-001 -9.82608676e-001 -1. -1. -1.
      -9.65217412e-001 -1. -1. -9.47826087e-001 -9.82608676e-001
      -9.65217412e-001 -7.04347849e-001 -1. -9.65217412e-001 -1.
      -9.47826087e-001 -9.65217412e-001 -9.65217412e-001
      -6.86956525e-001 -6.00000024e-001 -8.78260851e-001
      -8.43478262e-001 -7.21739173e-001 -1. -7.56521761e-001
      -9.30434763e-001 -1. -9.82608676e-001 -5.13043523e-001
      -9.82608676e-001 -1. -9.82608676e-001 -9.47826087e-001 -1.
      -9.82608676e-001 -1. -3.04347873e-001 -1. -1. -1. -1. -1. -1. -1.
      -1. -1. -9.82608676e-001 -9.13043499e-001 -1. -1. -1. -1.
      -9.82608676e-001 -9.82608676e-001 -8.08695674e-001 9.47826028e-001</_>
    <_>
      1. 9.03846025e-001 -1.79438412e-001 -7.72836566e-001
      -8.48557711e-001 -8.48557711e-001 -1. -9.13461447e-002 -1.
      -9.62139428e-001 -9.81069684e-001 -3.45553160e-002 -1. -1. -1.
      -9.24278855e-001 -1. -9.81069684e-001 -1. -1.85997605e-001 -1.
      -9.62139428e-001 -1. -1. -9.81069684e-001 -1. -1. -9.81069684e-001
      -1. -9.62139428e-001 -7.53906250e-001 -9.81069684e-001 -1. -1. -1.
      -1. -1. -6.59254789e-001 -2.42788494e-001 -6.02463961e-001
      -3.75300467e-001 -7.16045678e-001 -1. -6.59254789e-001
      -9.43209112e-001 -9.81069684e-001 -1. -3.37439895e-001
      -8.86418283e-001 -9.62139428e-001 -1. -9.24278855e-001 -1.
      -9.81069684e-001 -9.43209112e-001 -5.26742816e-001 -1.
      -9.81069684e-001 -1. -1. -9.81069684e-001 -9.81069684e-001 -1. -1.
      -9.81069684e-001 -9.62139428e-001 -6.59254789e-001 -1. -1.
      -9.81069684e-001 -9.05348539e-001 -9.62139428e-001 -1.
      -5.45673072e-001 -3.75300467e-001 -8.10697138e-001
      -7.34975934e-001 -9.05348539e-001 -1. -4.69951928e-001
      -9.81069684e-001 -1. -1. -6.59254789e-001 -9.81069684e-001 -1. -1.
      -9.62139428e-001 -1. -1. -9.62139428e-001 -2.23858178e-001 -1.
      -9.43209112e-001 -1. -1. -1. -1. -1. -9.81069684e-001 -1. -1.
      -8.86418283e-001 -1. -9.81069684e-001 -1. -9.43209112e-001
      -9.81069684e-001 -1. -5.26742816e-001 7.79447079e-001
      -5.83533645e-001 -5.26742816e-001 -7.16045678e-001 -1.
      -5.07812500e-001 -9.81069684e-001 -9.81069684e-001
      -9.43209112e-001 4.00841355e-001 -9.24278855e-001 -9.81069684e-001
      -9.81069684e-001 -9.24278855e-001 -9.81069684e-001
      -9.62139428e-001 -1. -3.37439895e-001 -9.81069684e-001 -1. -1. -1.
      -1. -1. -1. -1. -1. -9.62139428e-001 -8.29627395e-001 -1. -1. -1.
      -9.81069684e-001 -1. -9.81069684e-001 -7.53906250e-001
      -7.34975934e-001 -5.07812500e-001 -5.45673072e-001
      -5.83533645e-001 -9.62139428e-001 -7.16045678e-001 -1.
      -9.81069684e-001 -1. -5.83533645e-001 -9.05348539e-001
      -9.43209112e-001 -9.62139428e-001 -8.86418283e-001
      -9.62139428e-001 -9.81069684e-001 -8.86418283e-001
      -6.59254789e-001 -9.62139428e-001 -9.24278855e-001 -1.
      -9.62139428e-001 -9.81069684e-001 -9.81069684e-001
      -9.81069684e-001 -9.62139428e-001 -9.81069684e-001
      -9.43209112e-001 -6.97115421e-001 -1. -1. -1. -9.05348539e-001 -1.
      -9.43209112e-001 -6.97115421e-001 -1.67067349e-001
      -8.10697138e-001 -7.72836566e-001 -5.64603388e-001
      -9.81069684e-001 -5.26742816e-001 -9.81069684e-001
      -9.81069684e-001 -9.81069684e-001 -1.85997605e-001
      -9.81069684e-001 -9.81069684e-001 -1. -1. -9.24278855e-001
      -9.62139428e-001 -9.81069684e-001 -9.13461447e-002 -1.
      -9.62139428e-001 -1. -1. -1. -1. -1. -1. -1. -9.62139428e-001
      -7.53906250e-001 -1. -1. -1. -9.62139428e-001 -9.81069684e-001 -1.
      -7.16045678e-001 -1.10276461e-001 -8.86418283e-001
      -6.59254789e-001 -6.40324533e-001 -9.81069684e-001
      -1.29206777e-001 -1. -1. -9.81069684e-001 7.90264606e-002
      -9.43209112e-001 -1. -1. -9.24278855e-001 -9.81069684e-001 -1.
      -8.67487967e-001 -2.23858178e-001 -9.81069684e-001 -1. -1. -1.
      -9.81069684e-001 -1. -1. -1. -1. -1. -8.48557711e-001 -1. -1. -1.
      -9.43209112e-001 -1. -1. -7.34975934e-001 -5.26742816e-001
      -5.26742816e-001 -4.88882244e-001 -7.16045678e-001
      -9.81069684e-001 -5.45673072e-001 -9.62139428e-001
      -9.81069684e-001 -9.05348539e-001 -1.48137033e-001
      -8.10697138e-001 -9.05348539e-001 -9.62139428e-001 -1. -1.
      -9.81069684e-001 -9.81069684e-001 -4.88882244e-001 -1.
      -9.81069684e-001 -1. -1. -9.81069684e-001 -9.81069684e-001 -1.
      -9.81069684e-001 -1. -1. -7.34975934e-001 -1. -1. -1.
      -9.43209112e-001 -9.62139428e-001 -9.43209112e-001
      -7.53906250e-001 -5.07812500e-001 -5.64603388e-001
      -6.40324533e-001 -6.78185105e-001 -9.43209112e-001
      -5.83533645e-001 -9.81069684e-001 -9.81069684e-001
      -9.43209112e-001 -3.94230783e-001 -9.43209112e-001
      -9.62139428e-001 -1. -9.43209112e-001 -9.24278855e-001
      -9.81069684e-001 -1. -3.56370211e-001 -9.81069684e-001 -1.
      -9.81069684e-001 -1. -9.62139428e-001 -1. -1. -9.62139428e-001
      -9.81069684e-001 -9.81069684e-001 -6.40324533e-001 -1. -1. -1. -1.
      -1. -9.81069684e-001 -6.78185105e-001 -1.85997605e-001</_>
    <_>
      2.42352962e-001 2.04705954e-001 -4.67448533e-001 -9.64705884e-001
      -9.64705884e-001 -9.64705884e-001 -1. -6.94117665e-001 -1. -1. -1.
      -8.58823538e-001 -9.88235295e-001 -1. -1. -9.88235295e-001 -1. -1.
      -9.64705884e-001 -7.17647076e-001 -1. -1. -1. -1. -1. -1. -1. -1.
      -1. -1. -1. -1. -1. -1. -9.88235295e-001 -1. -1. -8.94117653e-001
      1. -8.58823538e-001 -6.11764669e-001 -8.82352948e-001
      -9.76470590e-001 -6.70588255e-001 -9.88235295e-001
      -9.88235295e-001 -1. -4.70588207e-001 -9.64705884e-001
      -9.88235295e-001 -9.88235295e-001 -9.88235295e-001 -1. -1.
      -9.88235295e-001 -6.82352901e-001 -1. -9.88235295e-001 -1. -1.
      -9.64705884e-001 -1. -1. -9.88235295e-001 -9.88235295e-001 -1.
      -8.94117653e-001 -1. -1. -9.88235295e-001 -9.76470590e-001 -1.
      -9.76470590e-001 -7.41176486e-001 -4.35294092e-001
      -7.41176486e-001 -7.88235307e-001 -9.05882359e-001
      -9.64705884e-001 -7.76470602e-001 -1. -9.88235295e-001 -1.
      -4.94117618e-001 -9.52941179e-001 -1. -1. -9.41176474e-001
      -9.64705884e-001 -9.76470590e-001 -9.88235295e-001
      -7.17647076e-001 -1. -1. -1. -1. -9.76470590e-001 -9.76470590e-001
      -1. -9.64705884e-001 -1. -9.76470590e-001 -9.17647064e-001
      -9.88235295e-001 -1. -1. -9.76470590e-001 -1. -9.76470590e-001
      -8.11764717e-001 -2.23529398e-001 -9.41176474e-001
      -8.47058833e-001 -9.41176474e-001 -9.88235295e-001
      -6.35294080e-001 -9.88235295e-001 -1. -9.88235295e-001
      -3.88235271e-001 -9.29411769e-001 -9.88235295e-001
      -9.64705884e-001 -9.76470590e-001 -9.76470590e-001 -1.
      -9.52941179e-001 -5.41176438e-001 -1. -1. -1. -1. -1. -1. -1. -1.
      -9.88235295e-001 -1. -9.52941179e-001 -1. -1. -1. -9.64705884e-001
      -1. -9.88235295e-001 -8.23529422e-001 -2.23529398e-001
      -7.41176486e-001 -6.47058845e-001 -8.47058833e-001
      -9.29411769e-001 -5.88235259e-001 -1. -1. -9.88235295e-001
      -6.23529434e-001 -9.76470590e-001 -9.64705884e-001 -1.
      -9.64705884e-001 -9.76470590e-001 -9.88235295e-001
      -9.76470590e-001 -5.64705849e-001 -9.88235295e-001
      -9.76470590e-001 -1. -1. -9.76470590e-001 -9.88235295e-001 -1. -1.
      -1. -9.88235295e-001 -7.88235307e-001 -1. -1. -1. -9.41176474e-001
      -9.64705884e-001 -1. -8.47058833e-001 -7.52941191e-001
      -8.23529422e-001 -7.17647076e-001 -7.88235307e-001
      -9.76470590e-001 -6.58823490e-001 -1. -9.52941179e-001
      -9.64705884e-001 -5.29411793e-001 -9.88235295e-001
      -9.76470590e-001 -1. -9.76470590e-001 -1. -9.88235295e-001 -1.
      -5.29411793e-001 -1. -9.76470590e-001 -1. -1. -9.88235295e-001 -1.
      -1. -1. -1. -1. -8.35294127e-001 -1. -1. -1. -1. -9.64705884e-001
      -1. -8.11764717e-001 -5.41176438e-001 -8.58823538e-001
      -7.41176486e-001 -8.23529422e-001 -9.52941179e-001
      -6.70588255e-001 -1. -1. -1. -2.70588219e-001 -9.41176474e-001 -1.
      -1. -9.76470590e-001 -1. -1. -9.52941179e-001 -4.35294092e-001 -1.
      -1. -1. -1. -1. -1. -1. -1. -1. -9.88235295e-001 -9.05882359e-001
      -1. -1. -1. -9.41176474e-001 -1. -1. -8.47058833e-001
      -6.82352901e-001 -7.64705896e-001 -7.52941191e-001
      -6.47058845e-001 -9.64705884e-001 -5.88235259e-001
      -9.88235295e-001 -9.29411769e-001 -9.88235295e-001
      -6.47058845e-001 -9.88235295e-001 -9.52941179e-001
      -9.88235295e-001 -9.64705884e-001 -1. -9.88235295e-001
      -9.76470590e-001 -6.82352901e-001 -9.88235295e-001
      -9.64705884e-001 -1. -1. -9.76470590e-001 -1. -1. -9.88235295e-001
      -9.88235295e-001 -9.76470590e-001 -8.58823538e-001 -1. -1.
      -9.88235295e-001 -9.76470590e-001 -9.76470590e-001
      -9.76470590e-001 -7.76470602e-001 -7.41176486e-001
      -8.82352948e-001 -7.76470602e-001 -8.11764717e-001
      -9.52941179e-001 -7.29411721e-001 -9.76470590e-001 -1.
      -9.88235295e-001 -8.47058833e-001 -9.41176474e-001 -1.
      -9.88235295e-001 -9.29411769e-001 -1. -1. -9.52941179e-001
      -4.23529387e-001 -1. -9.76470590e-001 -1. -1. -9.76470590e-001 -1.
      -1. -1. -1. -9.76470590e-001 -9.17647064e-001 -1. -9.88235295e-001
      -1. -9.76470590e-001 -1. -9.88235295e-001 -7.88235307e-001
      -1.99999988e-001</_>
    <_>
      1. 8.99159670e-001 -1.68607473e-001 -7.72321463e-001
      -7.15401769e-001 -7.15401769e-001 -9.81026769e-001
      -2.97991037e-001 -1. -9.24107134e-001 -1. -5.13392687e-002 -1. -1.
      -1. -9.81026769e-001 -1. -1. -9.24107134e-001 -1.08258903e-001 -1.
      -1. -1. -1. -9.81026769e-001 -1. -1. -1. -1. -1. -7.15401769e-001
      -1. -1. -1. -8.86160731e-001 -1. -1. -6.77455366e-001
      -4.11830366e-001 -7.15401769e-001 -5.25669634e-001
      -6.96428537e-001 -9.24107134e-001 -2.22098231e-001 -1.
      -9.81026769e-001 -9.81026769e-001 -5.13392687e-002
      -9.05133903e-001 -9.81026769e-001 -9.81026769e-001
      -9.81026769e-001 -1. -1. -9.62053597e-001 -1.84151769e-001 -1.
      -9.43080366e-001 -1. -1. -9.62053597e-001 -1. -1. -1.
      -9.62053597e-001 -9.81026769e-001 -7.91294634e-001 -1. -1. -1.
      -9.43080366e-001 -9.62053597e-001 -9.62053597e-001
      -7.34375000e-001 -8.10267866e-001 -6.96428537e-001
      -7.34375000e-001 -8.10267866e-001 -9.24107134e-001
      -1.84151769e-001 -1. -1. -1. -4.11830366e-001 -9.62053597e-001 -1.
      -1. -9.62053597e-001 -1. -9.81026769e-001 -8.48214269e-001
      -3.73883903e-001 -1. -9.43080366e-001 -1. -1. -9.81026769e-001 -1.
      -1. -9.81026769e-001 -9.81026769e-001 -1. -7.15401769e-001 -1. -1.
      -1. -1. -1. -9.81026769e-001 -5.44642866e-001 -1.27232134e-001
      -7.34375000e-001 -6.01562500e-001 -6.77455366e-001
      -9.81026769e-001 -4.30803537e-001 -9.62053597e-001
      -9.62053597e-001 -9.81026769e-001 3.09151769e-001 -9.24107134e-001
      -9.81026769e-001 -9.81026769e-001 -9.62053597e-001 -1.
      -9.62053597e-001 -9.81026769e-001 -5.13392687e-002 -1. -1. -1. -1.
      -9.43080366e-001 -1. -1. -1. -1. -1. -8.67187500e-001 -1. -1. -1.
      -9.62053597e-001 -1. -9.81026769e-001 -7.53348231e-001
      -7.72321463e-001 -6.20535731e-001 -5.25669634e-001
      -4.30803537e-001 -9.43080366e-001 -5.06696463e-001
      -9.81026769e-001 -9.62053597e-001 -9.43080366e-001
      -3.73883903e-001 -9.43080366e-001 -9.81026769e-001 -1.
      -8.67187500e-001 -1. -9.81026769e-001 -9.05133903e-001
      -3.16964269e-001 -1. -9.62053597e-001 -1. -1. -1. -1. -1.
      -9.62053597e-001 -9.62053597e-001 -1. -7.53348231e-001 -1. -1. -1.
      -9.24107134e-001 -9.62053597e-001 -1. -6.39508963e-001
      -6.96428537e-001 -6.39508963e-001 -5.82589269e-001
      -6.20535731e-001 -8.48214269e-001 -5.63616037e-001
      -9.05133903e-001 -1. -9.62053597e-001 -3.73883903e-001
      -9.62053597e-001 -9.81026769e-001 -9.43080366e-001
      -9.62053597e-001 -9.81026769e-001 -9.81026769e-001 -1.
      -3.35937500e-001 -1. -9.24107134e-001 -1. -9.81026769e-001
      -9.81026769e-001 -1. -1. -9.81026769e-001 -1. -9.43080366e-001
      -7.72321463e-001 -1. -1. -1. -9.05133903e-001 -9.81026769e-001 -1.
      -6.01562500e-001 -4.30803537e-001 -8.10267866e-001
      -7.15401769e-001 -8.10267866e-001 -9.81026769e-001
      -2.41071403e-001 -1. -1. -9.62053597e-001 -5.13392687e-002
      -9.62053597e-001 -1. -1. -9.62053597e-001 -9.81026769e-001 -1.
      -9.43080366e-001 -3.73883903e-001 -1. -9.81026769e-001 -1. -1.
      -9.62053597e-001 -1. -1. -1. -1. -9.81026769e-001 -8.10267866e-001
      -1. -1. -1. -9.43080366e-001 -1. -1. -6.01562500e-001
      -7.03125000e-002 -4.30803537e-001 -5.63616037e-001
      -6.01562500e-001 -9.24107134e-001 -5.82589269e-001
      -9.62053597e-001 -9.62053597e-001 -9.81026769e-001
      -4.11830366e-001 -9.24107134e-001 -1. -9.81026769e-001
      -8.86160731e-001 -9.43080366e-001 -9.62053597e-001
      -9.43080366e-001 -4.30803537e-001 -1. -9.62053597e-001 -1. -1.
      -9.62053597e-001 -9.81026769e-001 -1. -9.81026769e-001
      -9.81026769e-001 -9.62053597e-001 -6.58482134e-001 -1.
      -9.81026769e-001 -1. -9.62053597e-001 -9.43080366e-001
      -9.81026769e-001 -6.96428537e-001 -6.01562500e-001
      -7.15401769e-001 -8.29241037e-001 -8.10267866e-001
      -9.81026769e-001 -6.77455366e-001 -9.62053597e-001
      -9.81026769e-001 -1. -5.06696463e-001 -1. -1. -9.81026769e-001
      -9.81026769e-001 -9.81026769e-001 -9.81026769e-001 -1.
      -2.60044634e-001 -9.81026769e-001 -9.81026769e-001 -1. -1.
      -9.62053597e-001 -1. -1. -9.81026769e-001 -9.81026769e-001 -1.
      -7.91294634e-001 -1. -9.81026769e-001 -9.81026769e-001 -1. -1. -1.
      -6.58482134e-001 8.02455425e-001</_>
    <_>
      9.99999881e-001 8.27586174e-001 -2.06025481e-001 -6.50660038e-001
      -6.13887429e-001 -8.52909505e-001 -9.81613696e-001
      -3.93251657e-001 -1. -9.44841027e-001 -1. -2.09388494e-001
      -9.44841027e-001 -9.81613696e-001 -9.81613696e-001
      -8.89682114e-001 -9.81613696e-001 -9.81613696e-001
      -9.44841027e-001 -4.11637962e-001 -1. -9.63227391e-001 -1. -1. -1.
      -9.81613696e-001 -1. -1. -9.81613696e-001 -9.44841027e-001
      -7.05819011e-001 -1. -9.81613696e-001 -1. -9.08068419e-001 -1. -1.
      -5.03569543e-001 -5.58728456e-001 -5.77114820e-001
      -5.03569543e-001 -7.05819011e-001 -9.08068419e-001
      -5.95501065e-001 -9.63227391e-001 -9.44841027e-001 -1.
      -4.11637962e-001 -9.81613696e-001 -9.44841027e-001
      -9.81613696e-001 -9.44841027e-001 -9.26454723e-001
      -9.81613696e-001 -8.71295810e-001 -4.66796875e-001
      -9.81613696e-001 -9.81613696e-001 -1. -1. -9.81613696e-001 -1. -1.
      -9.81613696e-001 -1. -9.44841027e-001 -7.60977924e-001 -1.
      -9.81613696e-001 -1. -9.63227391e-001 -9.81613696e-001
      -9.44841027e-001 -6.13887429e-001 -4.66796875e-001
      -7.60977924e-001 -6.32273734e-001 -8.52909505e-001
      -9.44841027e-001 -5.40342152e-001 -1. -9.81613696e-001 -1.
      -5.40342152e-001 -8.89682114e-001 -9.81613696e-001
      -9.63227391e-001 -9.08068419e-001 -1. -9.63227391e-001
      -9.08068419e-001 -4.66796875e-001 -1. -9.81613696e-001 -1. -1. -1.
      -1. -1. -1. -1. -9.63227391e-001 -9.26454723e-001 -1.
      -9.26454723e-001 -1. -9.81613696e-001 -9.81613696e-001
      -9.81613696e-001 -7.97750533e-001 5.81223011e-001 -5.77114820e-001
      -5.77114820e-001 -6.69046342e-001 -9.63227391e-001
      -5.40342152e-001 -1. -9.81613696e-001 -1. -2.09388494e-001
      -9.08068419e-001 -9.81613696e-001 -1. -9.63227391e-001
      -9.63227391e-001 -9.44841027e-001 -9.26454723e-001
      -1.17456913e-001 -1. -9.81613696e-001 -9.81613696e-001 -1.
      -9.44841027e-001 -1. -1. -9.81613696e-001 -1. -1. -8.52909505e-001
      -1. -1. -9.81613696e-001 -1. -9.26454723e-001 -9.63227391e-001
      -6.50660038e-001 -7.05819011e-001 -5.95501065e-001
      -5.40342152e-001 -7.24205256e-001 -8.52909505e-001
      -4.30024266e-001 -9.81613696e-001 -9.81613696e-001
      -9.44841027e-001 -5.21955848e-001 -9.44841027e-001
      -9.44841027e-001 -1. -9.63227391e-001 -9.63227391e-001 -1.
      -9.44841027e-001 -4.85183239e-001 -1. -1. -9.81613696e-001 -1.
      -9.63227391e-001 -1. -1. -9.63227391e-001 -9.63227391e-001
      -9.81613696e-001 -6.87432647e-001 -1. -9.81613696e-001 -1.
      -9.26454723e-001 -9.81613696e-001 -9.63227391e-001
      -5.77114820e-001 -5.03569543e-001 -8.16136837e-001
      -5.58728456e-001 -6.50660038e-001 -9.44841027e-001
      -5.58728456e-001 -9.81613696e-001 -9.81613696e-001
      -9.44841027e-001 -3.01320076e-001 -9.26454723e-001 -1. -1.
      -9.08068419e-001 -9.81613696e-001 -1. -8.71295810e-001
      -9.90706086e-002 -1. -9.63227391e-001 -1. -1. -9.81613696e-001 -1.
      -1. -9.81613696e-001 -1. -9.81613696e-001 -7.05819011e-001 -1. -1.
      -1. -9.08068419e-001 -9.81613696e-001 -9.81613696e-001
      -7.60977924e-001 -5.21955848e-001 -7.42591619e-001
      -6.50660038e-001 -5.21955848e-001 -9.81613696e-001
      -2.64547467e-001 -9.81613696e-001 -9.81613696e-001 -1.
      2.87041903e-001 -1. -9.81613696e-001 -1. -9.63227391e-001
      -9.81613696e-001 -9.81613696e-001 -1. -1.91002190e-001 -1.
      -9.81613696e-001 -1. -1. -9.44841027e-001 -1. -1. -1.
      -9.81613696e-001 -9.81613696e-001 -7.97750533e-001 -1. -1. -1.
      -9.81613696e-001 -1. -1. -8.71295810e-001 -8.16136837e-001
      -7.60977924e-001 -5.03569543e-001 -6.32273734e-001
      -9.44841027e-001 -3.93251657e-001 -9.44841027e-001
      -9.63227391e-001 -9.81613696e-001 -6.22979999e-002
      -9.08068419e-001 -9.44841027e-001 -1. -9.81613696e-001 -1. -1.
      -9.44841027e-001 -3.74865353e-001 -9.81613696e-001
      -9.81613696e-001 -1. -1. -9.26454723e-001 -1. -1. -1.
      -9.81613696e-001 -1. -8.16136837e-001 -1. -1. -1. -9.81613696e-001
      -9.44841027e-001 -9.63227391e-001 -7.05819011e-001
      -6.69046342e-001 -7.79364228e-001 -7.24205256e-001
      -7.05819011e-001 -9.63227391e-001 -3.93251657e-001 -1. -1. -1.
      -2.46161163e-001 -9.81613696e-001 -1. -1. -9.63227391e-001 -1.
      -9.81613696e-001 -9.26454723e-001 1.76724076e-001 -1. -1. -1. -1.
      -9.44841027e-001 -1. -1. -9.81613696e-001 -1. -9.63227391e-001
      -7.60977924e-001 -1. -1. -1. -8.89682114e-001 -1. -9.81613696e-001
      -7.05819011e-001 -5.77114820e-001</_>
    <_>
      -1.47058845e-001 -2.13235319e-001 1. -8.51562500e-001
      -8.51562500e-001 -9.06250000e-001 -9.37500000e-001
      -7.18750000e-001 -1. -9.92187500e-001 -9.92187500e-001
      -5.62500000e-001 -9.76562500e-001 -9.92187500e-001 -1.
      -9.84375000e-001 -9.60937500e-001 -9.92187500e-001
      -9.84375000e-001 -7.26562500e-001 -1. -9.92187500e-001 -1. -1. -1.
      -1. -1. -1. -9.92187500e-001 -9.76562500e-001 -8.98437500e-001 -1.
      -1. -1. -9.84375000e-001 -9.92187500e-001 -9.92187500e-001
      -8.75000000e-001 -8.67187500e-001 -8.43750000e-001
      -8.59375000e-001 -7.81250000e-001 -9.60937500e-001
      -8.35937500e-001 -9.92187500e-001 -9.92187500e-001
      -9.84375000e-001 -6.64062500e-001 -1. -1. -9.92187500e-001
      -9.60937500e-001 -1. -9.84375000e-001 -9.84375000e-001
      -7.34375000e-001 -9.92187500e-001 -9.92187500e-001 -1. -1.
      -9.84375000e-001 -9.84375000e-001 -9.92187500e-001 -1. -1.
      -9.76562500e-001 -8.59375000e-001 -1. -1. -1. -9.76562500e-001
      -9.92187500e-001 -9.92187500e-001 -8.75000000e-001
      -8.12500000e-001 -9.06250000e-001 -9.06250000e-001
      -9.60937500e-001 -1. -8.43750000e-001 -1. -9.84375000e-001 -1.
      -8.04687500e-001 -9.92187500e-001 -1. -1. -9.92187500e-001 -1. -1.
      -9.68750000e-001 -7.57812500e-001 -1. -1. -1. -1. -1. -1. -1. -1.
      -1. -1. -1. -1. -1. -1. -1. -1. -9.92187500e-001 -8.82812500e-001
      -7.81250000e-003 -8.59375000e-001 -8.35937500e-001
      -8.20312500e-001 -9.84375000e-001 -7.26562500e-001
      -9.92187500e-001 -9.84375000e-001 -9.92187500e-001
      -5.46875000e-001 -1. -9.84375000e-001 -1. -9.84375000e-001
      -9.92187500e-001 -1. -9.84375000e-001 -6.32812500e-001 -1.
      -9.84375000e-001 -9.92187500e-001 -1. -9.92187500e-001 -1. -1. -1.
      -1. -1. -9.29687500e-001 -1. -1. -1. -9.92187500e-001 -1.
      -9.84375000e-001 -8.90625000e-001 -9.14062500e-001
      -7.81250000e-001 -7.73437500e-001 -8.04687500e-001
      -9.53125000e-001 -7.96875000e-001 -1. -9.92187500e-001
      -9.84375000e-001 -8.43750000e-001 -9.60937500e-001
      -9.76562500e-001 -1. -9.92187500e-001 -9.76562500e-001
      -9.68750000e-001 -9.92187500e-001 -8.82812500e-001 -1.
      -9.92187500e-001 -9.92187500e-001 -1. -9.92187500e-001 -1.
      -9.92187500e-001 -9.92187500e-001 -9.68750000e-001
      -9.68750000e-001 -8.75000000e-001 -1. -9.92187500e-001 -1.
      -9.84375000e-001 -1. -1. -8.28125000e-001 -7.42187500e-001
      -8.90625000e-001 -8.67187500e-001 -9.37500000e-001
      -9.68750000e-001 -8.90625000e-001 -9.68750000e-001
      -9.92187500e-001 -1. -8.04687500e-001 -9.76562500e-001
      -9.84375000e-001 -1. -9.92187500e-001 -9.92187500e-001
      -9.92187500e-001 -9.84375000e-001 -7.73437500e-001 -1.
      -9.92187500e-001 -9.92187500e-001 -1. -1. -1. -1. -9.92187500e-001
      -9.92187500e-001 -9.92187500e-001 -9.45312500e-001 -1. -1. -1.
      -9.84375000e-001 -9.84375000e-001 -1. -8.67187500e-001
      -2.42187500e-001 -8.82812500e-001 -8.98437500e-001
      -8.35937500e-001 -9.84375000e-001 -6.64062500e-001 -1.
      -9.92187500e-001 -1. -2.96875000e-001 -9.92187500e-001
      -9.92187500e-001 -1. -1. -9.92187500e-001 -9.92187500e-001
      -9.92187500e-001 -6.71875000e-001 -1. -1. -1. -1. -9.92187500e-001
      -1. -1. -9.92187500e-001 -1. -1. -9.53125000e-001 -1. -1. -1.
      -9.92187500e-001 -1. -1. -9.45312500e-001 -9.37500000e-001
      -7.65625000e-001 -7.73437500e-001 -8.35937500e-001
      -9.60937500e-001 -8.12500000e-001 -9.84375000e-001
      -9.92187500e-001 -9.92187500e-001 -6.71875000e-001
      -9.76562500e-001 -1. -9.92187500e-001 -9.84375000e-001
      -9.84375000e-001 -1. -9.76562500e-001 -8.20312500e-001 -1. -1.
      -9.92187500e-001 -1. -9.84375000e-001 -1. -1. -9.76562500e-001
      -9.92187500e-001 -9.84375000e-001 -9.29687500e-001 -1. -1. -1.
      -9.60937500e-001 -9.84375000e-001 -9.76562500e-001
      -8.67187500e-001 -8.28125000e-001 -8.98437500e-001
      -7.57812500e-001 -9.06250000e-001 -9.60937500e-001
      -8.35937500e-001 -9.92187500e-001 -9.92187500e-001
      -9.76562500e-001 -7.89062500e-001 -9.68750000e-001 -1.
      -9.92187500e-001 -9.84375000e-001 -1. -1. -9.76562500e-001
      -7.42187500e-001 -1. -9.84375000e-001 -1. -1. -9.84375000e-001 -1.
      -1. -1. -9.76562500e-001 -9.92187500e-001 -9.06250000e-001 -1. -1.
      -1. -9.60937500e-001 -1. -9.92187500e-001 -8.82812500e-001
      -5.46875000e-001</_>
    <_>
      1. 8.93617034e-001 -2.15682983e-001 -8.52393627e-001
      -7.78590441e-001 -8.15492034e-001 -9.07746017e-001
      -4.28025246e-001 -1. -9.81549203e-001 -9.81549203e-001
      -4.83377635e-001 -9.07746017e-001 -1. -9.63098407e-001
      -8.70844424e-001 -1. -1. -9.63098407e-001 -4.28025246e-001 -1.
      -9.81549203e-001 -9.81549203e-001 -1. -1. -1. -9.81549203e-001 -1.
      -1. -9.81549203e-001 -8.89295220e-001 -1. -1. -1. -9.81549203e-001
      -1. -1. -5.94082475e-001 4.76063848e-001 -7.97041237e-001
      -6.12533212e-001 -5.75631618e-001 -9.63098407e-001
      -4.28025246e-001 -9.81549203e-001 -9.81549203e-001 -1.
      1.43949509e-001 -9.81549203e-001 -9.44647610e-001 -9.81549203e-001
      -9.26196814e-001 -9.63098407e-001 -1. -9.44647610e-001
      -1.88164890e-001 -1. -9.81549203e-001 -1. -9.63098407e-001
      -9.81549203e-001 -1. -1. -1. -1. -9.81549203e-001 -7.97041237e-001
      -1. -1. -1. -1. -1. -1. -6.86336398e-001 -7.60139585e-001
      -8.89295220e-001 -7.23237991e-001 -8.70844424e-001
      -9.26196814e-001 -2.80418873e-001 -1. -1. -1. -2.25066483e-001
      -9.44647610e-001 -1. -1. -9.63098407e-001 -1. -1. -9.26196814e-001
      -2.80418873e-001 -1. -9.63098407e-001 -1. -1. -1. -1. -1. -1. -1.
      -9.81549203e-001 -7.78590441e-001 -1. -9.81549203e-001 -1.
      -8.89295220e-001 -1. -1. -6.49434805e-001 -3.65686417e-003
      -4.28025246e-001 -6.30984068e-001 -6.86336398e-001 -1.
      -5.75631618e-001 -9.81549203e-001 -9.81549203e-001 -1.
      -4.05584574e-002 -1. -9.81549203e-001 -9.81549203e-001
      -9.44647610e-001 -1. -9.81549203e-001 -9.44647610e-001
      -2.80418873e-001 -9.81549203e-001 -9.81549203e-001 -1. -1.
      -9.44647610e-001 -1. -1. -1. -9.63098407e-001 -8.89295220e-001
      -7.04787254e-001 -1. -1. -1. -9.81549203e-001 -9.81549203e-001
      -9.81549203e-001 -6.86336398e-001 -7.41688848e-001
      -5.57180822e-001 -5.01828432e-001 -6.67885661e-001
      -9.63098407e-001 -6.12533212e-001 -1. -9.63098407e-001
      -9.63098407e-001 -5.38730025e-001 -8.89295220e-001
      -9.81549203e-001 -1. -9.26196814e-001 -9.44647610e-001
      -9.81549203e-001 -9.81549203e-001 -6.12533212e-001 -1. -1. -1. -1.
      -9.44647610e-001 -9.63098407e-001 -9.81549203e-001
      -9.63098407e-001 -1. -8.70844424e-001 -7.78590441e-001 -1.
      -9.81549203e-001 -1. -9.07746017e-001 -9.81549203e-001
      -9.81549203e-001 -5.01828432e-001 -3.35771263e-001
      -7.23237991e-001 -7.60139585e-001 -5.38730025e-001
      -9.81549203e-001 -1.32812500e-001 -1. -9.44647610e-001 -1.
      3.32447290e-002 -9.81549203e-001 -1. -9.81549203e-001
      -9.26196814e-001 -9.81549203e-001 -9.63098407e-001
      -9.44647610e-001 -3.54222059e-001 -1. -1. -9.81549203e-001 -1. -1.
      -1. -1. -9.81549203e-001 -1. -9.63098407e-001 -7.60139585e-001 -1.
      -1. -1. -9.44647610e-001 -9.26196814e-001 -1. -7.97041237e-001
      -7.41688848e-001 -6.67885661e-001 -7.23237991e-001
      -5.01828432e-001 -9.63098407e-001 -1.69714093e-001
      -9.63098407e-001 -9.63098407e-001 -9.81549203e-001
      -1.69714093e-001 -9.63098407e-001 -9.81549203e-001 -1.
      -9.81549203e-001 -1. -9.81549203e-001 -8.89295220e-001
      -3.35771263e-001 -1. -9.63098407e-001 -1. -1. -9.26196814e-001 -1.
      -1. -1. -1. -9.81549203e-001 -5.75631618e-001 -1. -1. -1.
      -9.44647610e-001 -1. -1. -7.78590441e-001 -8.70844424e-001
      -7.23237991e-001 -5.20279229e-001 -7.41688848e-001
      -9.63098407e-001 -1.69714093e-001 -1. -9.63098407e-001 -1.
      3.32447290e-002 -9.81549203e-001 -9.81549203e-001 -1.
      -9.44647610e-001 -9.81549203e-001 -1. -9.81549203e-001
      -3.17320466e-001 -1. -9.44647610e-001 -1. -1. -9.44647610e-001 -1.
      -1. -9.81549203e-001 -9.63098407e-001 -9.81549203e-001
      -7.41688848e-001 -1. -1. -1. -9.63098407e-001 -9.81549203e-001 -1.
      -7.78590441e-001 -7.60139585e-001 -7.04787254e-001
      -7.60139585e-001 -6.86336398e-001 -1. -2.43517280e-001
      -9.81549203e-001 -9.81549203e-001 -1. 1.80851102e-001
      -9.44647610e-001 -9.81549203e-001 -1. -8.89295220e-001
      -9.81549203e-001 -9.81549203e-001 -8.89295220e-001
      -3.17320466e-001 -9.81549203e-001 -9.81549203e-001 -1. -1.
      -9.81549203e-001 -1. -1. -9.81549203e-001 -1. -9.81549203e-001
      -7.97041237e-001 -1. -1. -1. -9.63098407e-001 -1. -1.
      -7.41688848e-001 -7.04787254e-001</_>
    <_>
      1. 8.87850523e-001 -2.23785222e-001 -7.96801984e-001
      -7.59856880e-001 -7.59856880e-001 -1. -1.68735385e-001
      -9.81527448e-001 -9.44582343e-001 -1. -2.61098146e-001
      -9.81527448e-001 -9.44582343e-001 -1. -9.63054895e-001
      -9.81527448e-001 -1. -9.63054895e-001 -4.27351058e-001 -1. -1. -1.
      -1. -9.26109791e-001 -1. -1. -9.81527448e-001 -9.81527448e-001
      -9.63054895e-001 -8.15274537e-001 -1. -1. -1. -9.81527448e-001
      -9.81527448e-001 -1. -4.64296162e-001 -2.42625594e-001
      -5.56658864e-001 -6.67494178e-001 -6.85966730e-001
      -8.70692194e-001 -6.49021626e-001 -9.07637239e-001
      -9.63054895e-001 -9.26109791e-001 -2.79570699e-001
      -9.44582343e-001 -9.63054895e-001 -1. -9.26109791e-001
      -9.63054895e-001 -1. -9.63054895e-001 -5.38186312e-001
      -9.81527448e-001 -1. -1. -1. -9.44582343e-001 -9.81527448e-001 -1.
      -9.81527448e-001 -1. -9.81527448e-001 -5.38186312e-001 -1. -1. -1.
      -9.63054895e-001 -1. -1. -7.78329432e-001 -3.16515744e-001
      -7.96801984e-001 -7.22911835e-001 -8.70692194e-001
      -9.07637239e-001 -4.82768714e-001 -9.81527448e-001 -1.
      -9.81527448e-001 -3.53460848e-001 -9.44582343e-001
      -9.81527448e-001 -9.81527448e-001 -8.89164686e-001 -1. -1.
      -9.44582343e-001 -4.45823610e-001 -1. -9.81527448e-001 -1. -1. -1.
      -1. -1. -1. -9.81527448e-001 -9.81527448e-001 -9.26109791e-001 -1.
      -1. -1. -9.26109791e-001 -1. -1. -5.75131416e-001 3.85440946e-001
      -5.56658864e-001 -5.56658864e-001 -6.85966730e-001
      -9.44582343e-001 -4.45823610e-001 -9.81527448e-001
      -9.81527448e-001 -9.26109791e-001 -2.05680490e-001
      -9.81527448e-001 -9.44582343e-001 -9.44582343e-001
      -9.44582343e-001 -9.63054895e-001 -9.44582343e-001
      -9.63054895e-001 -2.42625594e-001 -1. -1. -1. -1. -9.81527448e-001
      -1. -1. -9.63054895e-001 -1. -1. -9.07637239e-001 -1. -1. -1.
      -8.70692194e-001 -9.63054895e-001 -9.44582343e-001
      -7.04439282e-001 -7.22911835e-001 -5.56658864e-001
      -4.82768714e-001 -8.33747089e-001 -8.33747089e-001
      -5.38186312e-001 -9.81527448e-001 -9.63054895e-001
      -9.44582343e-001 -5.19713759e-001 -9.63054895e-001
      -9.81527448e-001 -1. -1. -9.81527448e-001 -9.81527448e-001
      -9.44582343e-001 -4.82768714e-001 -1. -9.81527448e-001 -1. -1.
      -9.81527448e-001 -1. -1. -1. -9.63054895e-001 -9.26109791e-001
      -6.85966730e-001 -1. -9.81527448e-001 -1. -9.44582343e-001
      -9.63054895e-001 -1. -5.75131416e-001 -2.79570699e-001
      -7.96801984e-001 -6.12076521e-001 -7.04439282e-001
      -9.26109791e-001 -2.98043251e-001 -9.63054895e-001 -1.
      -9.81527448e-001 -2.98043251e-001 -9.26109791e-001
      -9.44582343e-001 -1. -9.07637239e-001 -9.63054895e-001
      -9.63054895e-001 -9.44582343e-001 -1.13317728e-001 -1. -1. -1. -1.
      -9.81527448e-001 -1. -1. -9.81527448e-001 -1. -9.81527448e-001
      -6.12076521e-001 -1. -1. -1. -9.63054895e-001 -9.81527448e-001 -1.
      -6.49021626e-001 -7.78329432e-001 -8.15274537e-001
      -5.01241207e-001 -7.78329432e-001 -9.63054895e-001
      -2.61098146e-001 -9.63054895e-001 -9.81527448e-001
      -9.63054895e-001 4.59331155e-001 -1. -1. -1. -1. -9.81527448e-001
      -1. -9.81527448e-001 -1.87207937e-001 -1. -1. -1. -1.
      -9.81527448e-001 -1. -1. -1. -1. -1. -8.52219641e-001 -1. -1.
      -9.81527448e-001 -9.63054895e-001 -9.81527448e-001 -1.
      -8.89164686e-001 -7.04439282e-001 -7.78329432e-001
      -3.71933401e-001 -7.78329432e-001 -9.07637239e-001
      -3.90405953e-001 -1. -9.63054895e-001 -9.81527448e-001
      1.26825333e-001 -9.44582343e-001 -9.63054895e-001 -1.
      -9.63054895e-001 -1. -1. -9.44582343e-001 -5.56658864e-001 -1.
      -9.44582343e-001 -1. -1. -9.44582343e-001 -9.81527448e-001 -1.
      -9.81527448e-001 -1. -9.63054895e-001 -7.96801984e-001 -1. -1. -1.
      -9.63054895e-001 -1. -9.81527448e-001 -7.04439282e-001
      -5.93603969e-001 -8.33747089e-001 -5.01241207e-001
      -6.30549073e-001 -9.44582343e-001 -1.87207937e-001
      -9.81527448e-001 -9.81527448e-001 -9.63054895e-001
      -2.98043251e-001 -1. -9.81527448e-001 -1. -9.26109791e-001 -1. -1.
      -9.81527448e-001 -7.63726830e-002 -1. -1. -1. -1. -9.26109791e-001
      -9.81527448e-001 -1. -9.81527448e-001 -1. -9.81527448e-001
      -8.52219641e-001 -1. -1. -1. -9.26109791e-001 -1. -9.81527448e-001
      -6.30549073e-001 -7.22911835e-001</_>
    <_>
      5.10621548e-001 4.70338225e-001 4.81340885e-002 -9.35483873e-001
      -8.06451619e-001 -9.03225780e-001 -9.35483873e-001
      -4.67741966e-001 -1. -1. -1. -7.58064508e-001 -9.67741966e-001 -1.
      -1. -9.19354856e-001 -1. -1. -9.51612890e-001 -3.70967746e-001 -1.
      -1. -1. -1. -1. -1. -1. -1. -1. -1. -9.51612890e-001 -1.
      -9.83870983e-001 -1. -9.67741966e-001 -1. -9.83870983e-001
      -7.74193525e-001 8.06451559e-001 -8.38709712e-001 -6.45161271e-001
      -8.87096763e-001 -9.35483873e-001 -5.32258093e-001 -1.
      -9.51612890e-001 -1. -4.35483873e-001 -9.35483873e-001 -1. -1.
      -9.19354856e-001 -1. -1. -9.35483873e-001 -4.67741966e-001 -1. -1.
      -1. -1. -9.83870983e-001 -1. -1. -9.83870983e-001 -1.
      -9.83870983e-001 -9.35483873e-001 -1. -1. -1. -9.51612890e-001 -1.
      -1. -6.12903237e-001 6.45160675e-002 -7.74193525e-001
      -7.25806475e-001 -8.70967746e-001 -9.67741966e-001
      -5.32258093e-001 -1. -9.83870983e-001 -9.67741966e-001
      -5.80645204e-001 -9.51612890e-001 -9.83870983e-001 -1.
      -9.83870983e-001 -1. -1. -9.03225780e-001 -4.83870983e-001 -1. -1.
      -1. -1. -1. -1. -1. -9.67741966e-001 -9.83870983e-001 -1.
      -9.03225780e-001 -1. -1. -1. -9.51612890e-001 -1. -9.83870983e-001
      -6.93548381e-001 3.22580576e-001 -8.06451619e-001 -6.93548381e-001
      -8.22580636e-001 -9.35483873e-001 -5.16129017e-001
      -9.83870983e-001 -9.83870983e-001 -9.83870983e-001
      -5.48387110e-001 -9.03225780e-001 -9.83870983e-001 -1.
      -9.03225780e-001 -1. -9.83870983e-001 -9.67741966e-001
      -3.87096763e-001 -1. -9.67741966e-001 -1. -1. -9.83870983e-001 -1.
      -1. -9.83870983e-001 -1. -9.83870983e-001 -8.38709712e-001 -1. -1.
      -1. -9.67741966e-001 -9.83870983e-001 -1. -6.12903237e-001
      -1.45161331e-001 -8.06451619e-001 -7.74193525e-001
      -9.19354856e-001 -9.51612890e-001 -6.93548381e-001
      -9.67741966e-001 -1. -1. -6.45161271e-001 -9.51612890e-001 -1. -1.
      -9.19354856e-001 -9.83870983e-001 -1. -9.51612890e-001
      -4.83870983e-001 -1. -9.83870983e-001 -1. -1. -1. -1. -1. -1. -1.
      -1. -9.03225780e-001 -1. -1. -1. -9.67741966e-001 -1.
      -9.83870983e-001 -6.61290348e-001 6.77419305e-001 -7.74193525e-001
      -6.93548381e-001 -9.35483873e-001 -9.67741966e-001
      -2.90322602e-001 -9.83870983e-001 -9.51612890e-001 -1.
      -7.09677458e-001 -9.51612890e-001 -9.83870983e-001 -1.
      -9.51612890e-001 -9.83870983e-001 -1. -9.67741966e-001
      -5.32258093e-001 -1. -9.67741966e-001 -1. -1. -1. -1. -1.
      -9.51612890e-001 -9.51612890e-001 -1. -8.54838729e-001 -1. -1. -1.
      -9.83870983e-001 -9.67741966e-001 -9.67741966e-001
      -6.77419364e-001 1.29032254e-001 -9.03225780e-001 -7.41935492e-001
      -9.03225780e-001 -9.83870983e-001 -5.32258093e-001 -1.
      -9.83870983e-001 -1. -7.09677458e-001 -9.67741966e-001 -1. -1.
      -9.19354856e-001 -1. -1. -9.67741966e-001 1.61290169e-002 -1. -1.
      -1. -1. -1. -1. -1. -1. -1. -9.83870983e-001 -9.83870983e-001 -1.
      -1. -1. -9.51612890e-001 -1. -9.67741966e-001 -7.25806475e-001
      3.38709593e-001 -8.38709712e-001 -8.38709712e-001 -8.70967746e-001
      -9.83870983e-001 -5.80645204e-001 -1. -9.83870983e-001 -1.
      -8.54838729e-001 -9.51612890e-001 -1. -1. -9.35483873e-001 -1. -1.
      -9.83870983e-001 -2.25806475e-001 -1. -1. -1. -1. -1. -1. -1. -1.
      -1. -1. -9.35483873e-001 -1. -1. -1. -9.83870983e-001 -1.
      -9.83870983e-001 -7.25806475e-001 8.06451559e-001 -8.87096763e-001
      -8.38709712e-001 -9.19354856e-001 -9.19354856e-001
      -6.29032254e-001 -1. -9.83870983e-001 -1. -8.54838729e-001
      -9.51612890e-001 -1. -9.83870983e-001 -9.67741966e-001 -1. -1.
      -9.19354856e-001 -3.38709712e-001 -1. -1. -1. -1. -1. -1. -1. -1.
      -1. -1. -1. -1. -1. -1. -9.83870983e-001 -1. -1. -6.93548381e-001
      1.</_>
    <_>
      1.27528906e-001 1.05705738e-001 -2.70114541e-001 -9.27710831e-001
      -8.07228923e-001 -9.51807261e-001 -9.39759016e-001
      -6.74698830e-001 -9.87951815e-001 -9.87951815e-001 -1.
      -7.83132553e-001 -9.15662646e-001 -1. -1. -9.39759016e-001 -1. -1.
      -9.27710831e-001 -6.14457846e-001 -1. -9.87951815e-001 -1. -1.
      -9.63855445e-001 -1. -1. -9.87951815e-001 -1. -1. -9.63855445e-001
      -1. -1. -1. -1. -1. -9.87951815e-001 -7.71084309e-001
      2.04819202e-001 -8.55421662e-001 -7.95180738e-001 -9.27710831e-001
      -9.63855445e-001 -6.98795199e-001 -9.87951815e-001 -1.
      -9.87951815e-001 -7.34939754e-001 -9.87951815e-001 -1. -1.
      -9.75903630e-001 -1. -1. -9.63855445e-001 -5.42168677e-001
      -9.87951815e-001 -9.87951815e-001 -1. -1. -1. -1. -1. -1.
      -9.87951815e-001 -1. -9.39759016e-001 -1. -1. -1. -9.63855445e-001
      -1. -1. -7.59036183e-001 1.32530093e-001 -1. -9.63855445e-001
      -9.27710831e-001 -9.75903630e-001 -7.22891569e-001 -1. -1. -1.
      -8.43373537e-001 -9.63855445e-001 -1. -1. -9.87951815e-001 -1. -1.
      -9.63855445e-001 -6.14457846e-001 -1. -1. -1. -1. -1. -1. -1. -1.
      -1. -1. -1. -1. -1. -1. -9.87951815e-001 -1. -1. -8.79518092e-001
      9.15662527e-001 -8.67469907e-001 -8.19277108e-001 -9.03614461e-001
      -9.87951815e-001 -7.46987939e-001 -1. -9.87951815e-001
      -9.87951815e-001 -8.31325293e-001 -9.15662646e-001 -1.
      -9.87951815e-001 -9.75903630e-001 -9.87951815e-001 -1. -1.
      -5.78313231e-001 -1. -1. -9.87951815e-001 -1. -1. -1. -1.
      -9.75903630e-001 -1. -1. -9.75903630e-001 -1. -1. -1.
      -9.51807261e-001 -1. -1. -8.55421662e-001 4.09638524e-001
      -7.71084309e-001 -8.79518092e-001 -8.79518092e-001
      -9.63855445e-001 -7.34939754e-001 -9.87951815e-001
      -9.63855445e-001 -1. -7.34939754e-001 -9.75903630e-001 -1.
      -9.87951815e-001 -9.63855445e-001 -1. -9.87951815e-001
      -9.51807261e-001 -5.42168677e-001 -1. -1. -1. -1. -1. -1. -1. -1.
      -1. -1. -9.51807261e-001 -1. -9.87951815e-001 -1. -9.87951815e-001
      -1. -9.63855445e-001 -8.31325293e-001 1.32530093e-001
      -7.83132553e-001 -8.79518092e-001 -9.03614461e-001
      -9.63855445e-001 -7.10843384e-001 -9.63855445e-001 -1. -1.
      -8.55421662e-001 -9.87951815e-001 -9.87951815e-001 -1.
      -9.63855445e-001 -1. -1. -9.87951815e-001 -4.93975937e-001 -1.
      -9.87951815e-001 -1. -1. -9.87951815e-001 -1. -1. -1.
      -9.87951815e-001 -9.87951815e-001 -9.27710831e-001 -1. -1. -1.
      -9.75903630e-001 -1. -9.87951815e-001 -8.07228923e-001
      2.16867447e-001 -9.75903630e-001 -9.51807261e-001 -9.63855445e-001
      -9.75903630e-001 -7.71084309e-001 -1. -1. -1. -8.43373537e-001
      -9.75903630e-001 -1. -1. -9.63855445e-001 -1. -1. -1.
      -5.66265106e-001 -1. -1. -1. -1. -1. -1. -1. -1. -1. -1. -1. -1.
      -1. -1. -9.87951815e-001 -1. -1. -9.39759016e-001 9.99999881e-001
      -8.67469907e-001 -9.51807261e-001 -9.39759016e-001
      -9.75903630e-001 -6.38554215e-001 -1. -1. -9.87951815e-001
      -8.43373537e-001 -9.51807261e-001 -1. -1. -9.51807261e-001
      -9.87951815e-001 -1. -9.75903630e-001 -5.06024122e-001 -1. -1. -1.
      -1. -1. -1. -1. -1. -1. -1. -1. -1. -9.87951815e-001 -1.
      -9.75903630e-001 -9.87951815e-001 -9.87951815e-001
      -7.71084309e-001 3.73493910e-001 -8.43373537e-001 -8.55421662e-001
      -8.79518092e-001 -1. -7.46987939e-001 -9.75903630e-001
      -9.51807261e-001 -9.87951815e-001 -6.38554215e-001
      -9.51807261e-001 -1. -1. -9.87951815e-001 -1. -1. -1.
      -4.81927752e-001 -1. -1. -1. -1. -1. -1. -1. -9.87951815e-001 -1.
      -1. -9.15662646e-001 -1. -9.87951815e-001 -1. -1. -1. -1.
      -7.10843384e-001 -1.20482445e-002</_>
    <_>
      2.77495027e-001 2.44096518e-001 -2.12322593e-001 -9.72602725e-001
      -9.31506872e-001 -9.45205450e-001 -9.58904088e-001
      -7.53424644e-001 -1. -1. -1. -8.08219194e-001 -9.72602725e-001 -1.
      -9.86301363e-001 -9.72602725e-001 -1. -1. -9.58904088e-001
      -3.83561671e-001 -1. -1. -1. -1. -1. -1. -1. -1. -1. -1. -1. -1.
      -1. -1. -9.86301363e-001 -1. -9.72602725e-001 -8.90410960e-001 1.
      -9.31506872e-001 -8.90410960e-001 -8.90410960e-001
      -9.31506872e-001 -6.16438389e-001 -9.86301363e-001
      -9.86301363e-001 -1. -8.35616469e-001 -9.72602725e-001 -1. -1.
      -9.86301363e-001 -1. -1. -9.72602725e-001 -5.20547986e-001 -1. -1.
      -1. -1. -1. -1. -1. -1. -1. -1. -9.72602725e-001 -1. -1. -1.
      -9.72602725e-001 -1. -1. -7.80821919e-001 7.53424644e-001
      -8.90410960e-001 -7.94520557e-001 -9.17808235e-001
      -9.58904088e-001 -7.53424644e-001 -9.72602725e-001
      -9.86301363e-001 -1. -6.43835604e-001 -9.72602725e-001 -1. -1.
      -9.45205450e-001 -1. -1. -9.31506872e-001 -3.15068483e-001 -1. -1.
      -1. -1. -1. -1. -1. -1. -1. -1. -9.58904088e-001 -1. -1. -1. -1.
      -1. -1. -7.39726067e-001 2.87671208e-001 -8.49315047e-001
      -7.80821919e-001 -8.63013685e-001 -9.31506872e-001
      -6.98630154e-001 -9.72602725e-001 -9.86301363e-001 -1.
      -6.57534242e-001 -9.86301363e-001 -9.86301363e-001
      -9.72602725e-001 -9.45205450e-001 -9.72602725e-001
      -9.86301363e-001 -9.31506872e-001 -4.79452074e-001 -1.
      -9.72602725e-001 -9.86301363e-001 -1. -1. -1. -1. -9.86301363e-001
      -1. -9.72602725e-001 -9.31506872e-001 -1. -9.86301363e-001 -1.
      -9.58904088e-001 -1. -1. -6.43835604e-001 -5.47945499e-002
      -7.80821919e-001 -7.67123282e-001 -8.63013685e-001
      -9.72602725e-001 -7.39726067e-001 -1. -9.86301363e-001
      -9.86301363e-001 -8.08219194e-001 -9.86301363e-001 -1. -1.
      -9.58904088e-001 -9.86301363e-001 -1. -9.72602725e-001
      -5.20547986e-001 -1. -9.86301363e-001 -1. -1. -9.72602725e-001 -1.
      -1. -1. -1. -1. -9.58904088e-001 -1. -1. -1. -9.72602725e-001
      -9.86301363e-001 -1. -7.26027369e-001 4.38356161e-001
      -8.63013685e-001 -8.35616469e-001 -8.76712322e-001
      -9.86301363e-001 -5.47945201e-001 -9.86301363e-001
      -9.86301363e-001 -9.86301363e-001 -7.26027369e-001
      -9.31506872e-001 -1. -1. -9.58904088e-001 -9.58904088e-001 -1.
      -9.58904088e-001 -6.30136967e-001 -9.58904088e-001 -1. -1. -1. -1.
      -1. -1. -9.86301363e-001 -9.86301363e-001 -9.72602725e-001
      -9.72602725e-001 -1. -9.86301363e-001 -1. -9.86301363e-001
      -9.72602725e-001 -9.58904088e-001 -8.76712322e-001 3.97260308e-001
      -9.04109597e-001 -7.39726067e-001 -9.17808235e-001
      -9.58904088e-001 -5.20547986e-001 -1. -9.86301363e-001
      -9.72602725e-001 -6.43835604e-001 -9.45205450e-001
      -9.86301363e-001 -9.86301363e-001 -1. -1. -9.86301363e-001 -1.
      -4.79452074e-001 -1. -9.86301363e-001 -1. -1. -1. -1. -1.
      -9.86301363e-001 -9.86301363e-001 -9.86301363e-001
      -9.31506872e-001 -1. -1. -9.86301363e-001 -9.86301363e-001
      -9.86301363e-001 -9.86301363e-001 -7.80821919e-001 1.36986256e-001
      -6.98630154e-001 -8.49315047e-001 -9.31506872e-001
      -9.45205450e-001 -6.71232879e-001 -9.86301363e-001
      -9.86301363e-001 -1. -6.84931517e-001 -9.72602725e-001 -1. -1.
      -9.58904088e-001 -1. -9.86301363e-001 -9.72602725e-001
      -4.52054799e-001 -1. -9.72602725e-001 -1. -1. -1. -1. -1.
      -9.86301363e-001 -1. -9.86301363e-001 -9.58904088e-001 -1. -1. -1.
      -9.86301363e-001 -1. -9.86301363e-001 -6.84931517e-001
      1.64383531e-001 -8.63013685e-001 -8.49315047e-001 -9.04109597e-001
      -9.72602725e-001 -6.84931517e-001 -1. -9.58904088e-001 -1.
      -8.49315047e-001 -9.45205450e-001 -1. -9.86301363e-001
      -9.72602725e-001 -1. -1. -8.49315047e-001 -3.83561671e-001 -1. -1.
      -1. -1. -1. -1. -1. -1. -1. -1. -9.31506872e-001 -1.
      -9.86301363e-001 -1. -9.86301363e-001 -1. -9.72602725e-001
      -7.26027369e-001 3.28767061e-001</_>
    <_>
      2.60779262e-001 2.27817774e-001 -2.07892001e-001 -9.73154366e-001
      -9.73154366e-001 -9.46308732e-001 -1. -5.97315431e-001 -1. -1. -1.
      -7.31543660e-001 -9.59731519e-001 -1. -1. -9.73154366e-001 -1. -1.
      -9.73154366e-001 -4.89932895e-001 -1. -1. -1. -1. -1. -1. -1. -1.
      -1. -1. -1. -1. -1. -1. -1. -1. -9.73154366e-001 -9.32885885e-001
      9.59731579e-001 -8.52348983e-001 -8.92617464e-001 -9.06040251e-001
      -9.73154366e-001 -7.58389235e-001 -9.86577153e-001 -1. -1.
      -6.24161065e-001 -9.86577153e-001 -1. -1. -1. -9.86577153e-001 -1.
      -9.86577153e-001 -4.09395993e-001 -1. -9.59731519e-001 -1. -1.
      -9.86577153e-001 -1. -1. -1. -1. -1. -9.46308732e-001 -1. -1. -1.
      -9.73154366e-001 -1. -1. -6.77852333e-001 3.42281938e-001
      -9.59731519e-001 -9.32885885e-001 -9.46308732e-001
      -9.86577153e-001 -7.31543660e-001 -1. -1. -1. -7.44966447e-001
      -9.46308732e-001 -1. -9.86577153e-001 -9.73154366e-001
      -9.86577153e-001 -1. -9.86577153e-001 -5.30201316e-001 -1. -1. -1.
      -1. -1. -1. -1. -1. -1. -1. -1. -1. -1. -1. -1. -1. -1.
      -8.52348983e-001 1. -9.32885885e-001 -8.52348983e-001
      -9.19463098e-001 -1. -5.43624163e-001 -1. -1. -1. -7.71812081e-001
      -9.32885885e-001 -9.86577153e-001 -1. -9.46308732e-001 -1. -1.
      -9.73154366e-001 -4.89932895e-001 -1. -9.86577153e-001 -1. -1.
      -9.86577153e-001 -1. -1. -1. -1. -1. -9.73154366e-001 -1. -1. -1.
      -9.32885885e-001 -1. -9.86577153e-001 -8.12080503e-001
      4.63087201e-001 -8.65771830e-001 -8.12080503e-001 -9.32885885e-001
      -9.86577153e-001 -7.31543660e-001 -1. -1. -1. -7.98657715e-001
      -9.19463098e-001 -1. -1. -9.73154366e-001 -1. -1. -9.86577153e-001
      -4.36241627e-001 -1. -9.46308732e-001 -1. -1. -1. -1. -1. -1. -1.
      -1. -9.86577153e-001 -1. -1. -1. -9.59731519e-001 -1. -1.
      -8.25503349e-001 5.97315431e-001 -8.12080503e-001 -8.52348983e-001
      -9.46308732e-001 -1. -7.04697967e-001 -1. -9.86577153e-001 -1.
      -7.44966447e-001 -1. -1. -1. -9.86577153e-001 -1. -1.
      -9.86577153e-001 -1.81208074e-001 -1. -1. -1. -1. -1. -1. -1. -1.
      -1. -1. -1. -1. -1. -1. -9.86577153e-001 -1. -9.86577153e-001
      -7.85234928e-001 3.95973206e-001 -9.86577153e-001 -8.38926196e-001
      -9.73154366e-001 -1. -6.51006699e-001 -1. -1. -1. -8.65771830e-001
      -9.73154366e-001 -9.86577153e-001 -1. -9.73154366e-001 -1. -1.
      -9.73154366e-001 -4.63087261e-001 -1. -1. -1. -1. -1. -1. -1. -1.
      -1. -1. -9.86577153e-001 -1. -1. -1. -9.86577153e-001 -1. -1.
      -8.65771830e-001 9.59731579e-001 -8.25503349e-001 -7.18120813e-001
      -9.19463098e-001 -9.59731519e-001 -7.31543660e-001
      -9.46308732e-001 -1. -1. -6.10738277e-001 -9.32885885e-001 -1.
      -9.86577153e-001 -9.86577153e-001 -9.86577153e-001
      -9.86577153e-001 -1. -4.89932895e-001 -1. -9.46308732e-001 -1. -1.
      -9.86577153e-001 -1. -1. -9.86577153e-001 -1. -9.86577153e-001
      -9.19463098e-001 -1. -1. -1. -9.73154366e-001 -1. -9.86577153e-001
      -6.64429545e-001 -3.35570574e-002 -9.19463098e-001
      -8.38926196e-001 -9.46308732e-001 -9.46308732e-001
      -7.18120813e-001 -1. -9.73154366e-001 -1. -7.71812081e-001
      -9.19463098e-001 -1. -1. -9.73154366e-001 -9.86577153e-001 -1.
      -9.73154366e-001 -3.82550359e-001 -1. -9.86577153e-001 -1. -1. -1.
      -1. -1. -1. -1. -1. -9.06040251e-001 -1. -9.86577153e-001 -1. -1.
      -1. -1. -8.52348983e-001 5.16778588e-001</_>
    <_>
      1.72270417e-001 1.43325448e-001 -2.53113925e-001 -9.62264180e-001
      -8.49056602e-001 -9.49685514e-001 -1. -6.47798777e-001 -1.
      -9.87421393e-001 -9.87421393e-001 -7.48427689e-001
      -9.62264180e-001 -1. -1. -9.87421393e-001 -9.87421393e-001 -1.
      -9.87421393e-001 -5.72327018e-001 -1. -1. -1. -1. -1. -1. -1. -1.
      -1. -1. -9.87421393e-001 -1. -1. -1. -9.87421393e-001 -1.
      -9.87421393e-001 -8.74213815e-001 6.85534477e-001 -8.23899388e-001
      -8.49056602e-001 -8.49056602e-001 -9.87421393e-001
      -6.22641563e-001 -9.87421393e-001 -9.74842787e-001
      -9.87421393e-001 -6.98113203e-001 -1. -1. -9.87421393e-001
      -9.74842787e-001 -9.87421393e-001 -1. -9.74842787e-001
      -3.71069193e-001 -1. -9.62264180e-001 -1. -1. -1. -1. -1. -1.
      -9.87421393e-001 -1. -9.62264180e-001 -1. -1. -1. -9.74842787e-001
      -9.74842787e-001 -1. -6.85534596e-001 -1.57232761e-001
      -9.24528301e-001 -9.24528301e-001 -9.24528301e-001
      -9.49685514e-001 -6.10062897e-001 -1. -1. -1. -8.36477995e-001
      -9.62264180e-001 -1. -9.74842787e-001 -9.87421393e-001 -1. -1.
      -9.11949694e-001 -4.46540892e-001 -1. -1. -1. -1. -1. -1. -1. -1.
      -9.87421393e-001 -1. -1. -1. -1. -1. -1. -1. -1. -7.10691810e-001
      3.71069193e-001 -9.37106907e-001 -7.98742175e-001 -9.37106907e-001
      -9.87421393e-001 -6.60377383e-001 -1. -1. -1. -8.23899388e-001
      -9.74842787e-001 -9.87421393e-001 -9.87421393e-001
      -9.24528301e-001 -1. -1. -9.87421393e-001 -4.96855378e-001 -1. -1.
      -1. -1. -9.87421393e-001 -1. -1. -1. -1. -1. -9.87421393e-001 -1.
      -1. -1. -9.87421393e-001 -1. -1. -8.36477995e-001 5.22012472e-001
      -7.73584902e-001 -7.48427689e-001 -8.61635208e-001
      -9.74842787e-001 -6.98113203e-001 -9.87421393e-001
      -9.49685514e-001 -1. -4.21383679e-001 -9.74842787e-001
      -9.87421393e-001 -9.87421393e-001 -9.87421393e-001 -1. -1. -1.
      -6.10062897e-001 -9.87421393e-001 -9.87421393e-001 -1.
      -9.87421393e-001 -1. -9.74842787e-001 -1. -1. -1. -9.87421393e-001
      -9.74842787e-001 -1. -1. -1. -9.87421393e-001 -9.87421393e-001
      -9.87421393e-001 -7.86163509e-001 -1.69811368e-001
      -8.61635208e-001 -8.61635208e-001 -9.11949694e-001 -1.
      -6.72955990e-001 -1. -9.62264180e-001 -1. -6.72955990e-001 -1.
      -9.87421393e-001 -1. -9.87421393e-001 -9.87421393e-001 -1.
      -9.74842787e-001 -4.21383679e-001 -9.87421393e-001 -1. -1. -1. -1.
      -1. -1. -9.74842787e-001 -1. -9.74842787e-001 -9.11949694e-001 -1.
      -1. -1. -9.62264180e-001 -1. -1. -8.23899388e-001 1.57232642e-001
      -9.74842787e-001 -9.37106907e-001 -9.62264180e-001 -1.
      -6.98113203e-001 -1. -1. -1. -8.61635208e-001 -9.11949694e-001 -1.
      -1. -9.62264180e-001 -1. -1. -9.74842787e-001 -6.10062897e-001 -1.
      -1. -1. -1. -1. -1. -1. -1. -1. -1. -1. -1. -1. -1.
      -9.74842787e-001 -1. -9.87421393e-001 -9.24528301e-001
      9.99999881e-001 -8.36477995e-001 -7.73584902e-001 -8.11320782e-001
      -9.74842787e-001 -5.59748411e-001 -9.74842787e-001 -1.
      -9.74842787e-001 -7.10691810e-001 -9.62264180e-001
      -9.87421393e-001 -1. -9.74842787e-001 -9.87421393e-001 -1.
      -9.62264180e-001 -5.59748411e-001 -9.87421393e-001
      -9.62264180e-001 -1. -1. -9.87421393e-001 -1. -1. -1. -1.
      -9.87421393e-001 -9.24528301e-001 -1. -1. -1. -9.62264180e-001 -1.
      -9.87421393e-001 -6.35220170e-001 -2.95597494e-001
      -8.36477995e-001 -8.86792481e-001 -8.74213815e-001
      -9.74842787e-001 -7.10691810e-001 -1. -9.62264180e-001
      -9.87421393e-001 -7.23270416e-001 -9.62264180e-001 -1.
      -9.87421393e-001 -9.62264180e-001 -1. -9.87421393e-001
      -9.87421393e-001 -2.95597494e-001 -1. -9.87421393e-001 -1. -1. -1.
      -1. -1. -9.87421393e-001 -1. -1. -9.49685514e-001 -1. -1. -1. -1.
      -1. -9.87421393e-001 -7.61006296e-001 3.14464569e-002</_>
    <_>
      1.97607636e-001 1.74868226e-001 -2.52709091e-001 -9.61538434e-001
      -9.23076928e-001 -9.48717952e-001 -1. -6.53846145e-001 -1. -1. -1.
      -8.46153855e-001 -9.74358976e-001 -1. -1. -9.87179458e-001 -1. -1.
      -9.48717952e-001 -5.38461566e-001 -1. -1. -1. -1. -1. -1. -1. -1.
      -1. -1. -1. -1. -1. -1. -9.87179458e-001 -1. -1. -8.46153855e-001
      8.97435904e-001 -9.10256386e-001 -8.46153855e-001 -8.97435904e-001
      -9.74358976e-001 -5.64102530e-001 -9.87179458e-001 -1. -1.
      -7.69230783e-001 -9.74358976e-001 -1. -1. -9.61538434e-001 -1. -1.
      -9.10256386e-001 -4.23076928e-001 -1. -9.87179458e-001
      -9.87179458e-001 -1. -1. -1. -1. -1. -1. -9.87179458e-001
      -9.61538434e-001 -1. -1. -1. -9.87179458e-001 -1. -1.
      -6.92307711e-001 1.02564096e-001 -8.84615362e-001 -7.69230783e-001
      -9.10256386e-001 -9.87179458e-001 -5.89743614e-001 -1. -1.
      -9.87179458e-001 -7.56410241e-001 -8.97435904e-001 -1.
      -9.87179458e-001 -9.87179458e-001 -1. -1. -9.23076928e-001
      -4.48717952e-001 -9.87179458e-001 -9.87179458e-001 -1. -1.
      -9.87179458e-001 -1. -1. -1. -1. -1. -9.48717952e-001 -1. -1. -1.
      -9.61538434e-001 -1. -9.74358976e-001 -7.82051265e-001
      3.84615660e-002 -8.71794879e-001 -7.82051265e-001 -9.61538434e-001
      -9.74358976e-001 -5.12820482e-001 -9.87179458e-001 -1. -1.
      -7.30769217e-001 -9.87179458e-001 -1. -1. -1. -9.74358976e-001 -1.
      -9.35897410e-001 -4.35897410e-001 -1. -1. -1. -1. -1. -1. -1.
      -9.74358976e-001 -9.74358976e-001 -9.87179458e-001
      -9.61538434e-001 -1. -1. -1. -9.61538434e-001 -1. -9.87179458e-001
      -7.56410241e-001 3.84615660e-002 -8.07692289e-001 -6.92307711e-001
      -9.10256386e-001 -9.61538434e-001 -6.15384579e-001
      -9.74358976e-001 -9.74358976e-001 -1. -8.20512831e-001
      -9.74358976e-001 -9.87179458e-001 -9.87179458e-001
      -9.23076928e-001 -9.87179458e-001 -1. -9.74358976e-001
      -6.15384579e-001 -9.87179458e-001 -1. -9.87179458e-001 -1. -1. -1.
      -1. -1. -1. -1. -9.10256386e-001 -1. -1. -1. -1. -1.
      -9.61538434e-001 -8.20512831e-001 1.53846145e-001 -7.69230783e-001
      -8.46153855e-001 -9.61538434e-001 -9.87179458e-001
      -6.41025662e-001 -9.61538434e-001 -9.87179458e-001 -1.
      -7.82051265e-001 -9.74358976e-001 -9.87179458e-001 -1.
      -9.87179458e-001 -1. -9.87179458e-001 -1. -5.38461566e-001 -1.
      -9.87179458e-001 -1. -1. -1. -9.87179458e-001 -9.87179458e-001
      -9.87179458e-001 -9.74358976e-001 -9.87179458e-001
      -9.10256386e-001 -1. -9.87179458e-001 -1. -9.61538434e-001 -1.
      -9.74358976e-001 -7.82051265e-001 2.17948675e-001 -8.46153855e-001
      -8.20512831e-001 -8.58974338e-001 -9.74358976e-001
      -6.28205121e-001 -9.87179458e-001 -9.74358976e-001
      -9.87179458e-001 -7.82051265e-001 -8.97435904e-001 -1. -1.
      -9.74358976e-001 -1. -9.87179458e-001 -9.74358976e-001
      -5.25641024e-001 -1. -1. -1. -1. -9.87179458e-001 -1. -1. -1.
      -9.74358976e-001 -1. -8.97435904e-001 -1. -1. -1. -9.61538434e-001
      -1. -1. -7.82051265e-001 1.02564096e-001 -7.82051265e-001
      -8.84615362e-001 -9.10256386e-001 -9.23076928e-001
      -7.30769217e-001 -9.87179458e-001 -9.74358976e-001 -1.
      -7.82051265e-001 -9.74358976e-001 -9.74358976e-001 -1.
      -9.61538434e-001 -1. -9.87179458e-001 -9.48717952e-001
      -4.48717952e-001 -9.74358976e-001 -1. -1. -1. -1. -1. -1.
      -9.87179458e-001 -9.87179458e-001 -9.87179458e-001
      -9.23076928e-001 -1. -9.87179458e-001 -1. -9.87179458e-001
      -9.87179458e-001 -1. -7.17948675e-001 8.97436142e-002
      -9.10256386e-001 -9.35897410e-001 -9.48717952e-001 -1.
      -7.69230783e-001 -1. -9.87179458e-001 -1. -8.46153855e-001 -1. -1.
      -1. -1. -1. -1. -9.61538434e-001 -5.25641024e-001 -1. -1. -1. -1.
      -1. -1. -1. -1. -1. -1. -9.87179458e-001 -1. -1. -1. -1. -1.
      -9.87179458e-001 -8.58974338e-001 1.</_>
    <_>
      2.24880457e-001 2.01324940e-001 -2.21202672e-001 -9.34210539e-001
      -8.15789461e-001 -9.21052635e-001 -1. -6.71052635e-001 -1.
      -9.86842096e-001 -9.73684192e-001 -7.23684192e-001
      -9.73684192e-001 -1. -9.86842096e-001 -9.60526347e-001
      -9.86842096e-001 -1. -9.34210539e-001 -4.47368443e-001 -1. -1. -1.
      -1. -1. -1. -1. -9.86842096e-001 -9.73684192e-001 -1.
      -9.34210539e-001 -1. -1. -1. -9.73684192e-001 -1. -9.86842096e-001
      -8.02631557e-001 3.42105269e-001 -8.28947365e-001 -9.34210539e-001
      -9.21052635e-001 -1. -6.84210539e-001 -9.73684192e-001 -1. -1.
      -7.23684192e-001 -1. -9.86842096e-001 -1. -9.86842096e-001 -1. -1.
      -9.60526347e-001 -3.94736826e-001 -1. -9.73684192e-001 -1. -1.
      -9.86842096e-001 -1. -1. -1. -1. -1. -9.86842096e-001 -1. -1. -1.
      -9.60526347e-001 -1. -1. -7.23684192e-001 3.94736886e-001
      -9.47368443e-001 -9.34210539e-001 -9.47368443e-001 -1.
      -7.50000000e-001 -1. -1. -1. -8.28947365e-001 -9.60526347e-001 -1.
      -1. -9.73684192e-001 -1. -1. -9.73684192e-001 -4.73684192e-001 -1.
      -1. -1. -1. -1. -1. -1. -1. -1. -1. -1. -1. -1. -1.
      -9.86842096e-001 -1. -1. -8.55263174e-001 1. -9.34210539e-001
      -8.68421078e-001 -9.21052635e-001 -9.73684192e-001
      -5.26315808e-001 -9.86842096e-001 -9.86842096e-001 -1.
      -7.50000000e-001 -1. -9.86842096e-001 -1. -9.60526347e-001
      -9.86842096e-001 -1. -1. -3.94736826e-001 -1. -9.86842096e-001 -1.
      -1. -1. -1. -1. -1. -1. -1. -9.47368443e-001 -1. -9.86842096e-001
      -1. -9.86842096e-001 -1. -9.86842096e-001 -7.76315808e-001
      3.15789461e-001 -9.07894731e-001 -8.81578922e-001 -9.07894731e-001
      -9.60526347e-001 -7.36842096e-001 -9.86842096e-001 -1. -1.
      -7.76315808e-001 -9.86842096e-001 -9.86842096e-001 -1.
      -9.60526347e-001 -1. -1. -9.73684192e-001 -5.13157904e-001 -1.
      -9.60526347e-001 -1. -1. -1. -1. -1. -1. -1. -1. -9.73684192e-001
      -1. -1. -1. -1. -1. -9.86842096e-001 -7.76315808e-001
      6.44736886e-001 -8.68421078e-001 -8.94736826e-001 -9.47368443e-001
      -1. -7.50000000e-001 -1. -9.86842096e-001 -1. -6.97368383e-001 -1.
      -1. -9.86842096e-001 -9.86842096e-001 -1. -9.86842096e-001
      -9.73684192e-001 -5.00000000e-001 -9.86842096e-001
      -9.86842096e-001 -1. -1. -1. -1. -1. -9.86842096e-001
      -9.86842096e-001 -1. -9.47368443e-001 -1. -1. -1. -9.73684192e-001
      -1. -1. -8.42105269e-001 6.57894731e-001 -9.86842096e-001
      -8.55263174e-001 -9.60526347e-001 -9.60526347e-001
      -6.05263114e-001 -1. -1. -1. -8.94736826e-001 -9.47368443e-001 -1.
      -1. -9.34210539e-001 -1. -1. -9.47368443e-001 -4.86842096e-001 -1.
      -1. -1. -1. -1. -1. -1. -1. -1. -1. -1. -1. -9.86842096e-001 -1.
      -9.60526347e-001 -1. -9.86842096e-001 -8.94736826e-001
      7.76315808e-001 -8.42105269e-001 -8.55263174e-001 -9.21052635e-001
      -1. -5.78947365e-001 -9.73684192e-001 -9.73684192e-001 -1.
      -6.84210539e-001 -9.73684192e-001 -1. -1. -9.86842096e-001 -1.
      -9.73684192e-001 -9.73684192e-001 -5.00000000e-001
      -9.86842096e-001 -9.73684192e-001 -1. -1. -1. -1. -1.
      -9.73684192e-001 -9.86842096e-001 -1. -9.34210539e-001 -1. -1. -1.
      -9.86842096e-001 -9.86842096e-001 -9.60526347e-001
      -7.76315808e-001 1.71052694e-001 -8.94736826e-001 -7.10526347e-001
      -8.81578922e-001 -9.60526347e-001 -7.23684192e-001
      -9.86842096e-001 -9.86842096e-001 -9.86842096e-001
      -7.23684192e-001 -9.86842096e-001 -9.86842096e-001
      -9.86842096e-001 -9.60526347e-001 -1. -1. -9.60526347e-001
      -3.68421078e-001 -1. -1. -1. -1. -9.86842096e-001 -1.
      -9.86842096e-001 -9.73684192e-001 -9.86842096e-001 -1.
      -8.81578922e-001 -1. -1. -1. -9.60526347e-001 -9.86842096e-001
      -9.86842096e-001 -7.76315808e-001 0.</_>
    <_>
      4.71404791e-002 2.12851763e-002 -2.92245388e-001 -9.88764048e-001
      -9.21348333e-001 -9.66292143e-001 -1. -7.52808988e-001
      -9.88764048e-001 -1. -1. -7.75280893e-001 -9.77528095e-001 -1. -1.
      -9.88764048e-001 -1. -1. -9.88764048e-001 -7.64044940e-001 -1. -1.
      -1. -1. -1. -1. -1. -1. -1. -1. -1. -1. -1. -1. -1. -1. -1.
      -9.43820238e-001 9.32584286e-001 -8.08988750e-001 -8.42696607e-001
      -8.87640476e-001 -9.32584286e-001 -7.19101131e-001
      -9.66292143e-001 -9.43820238e-001 -9.66292143e-001
      -6.06741548e-001 -9.43820238e-001 -9.88764048e-001 -1.
      -9.43820238e-001 -9.88764048e-001 -1. -1. -5.73033690e-001 -1. -1.
      -1. -1. -9.77528095e-001 -1. -1. -1. -1. -1. -8.98876429e-001 -1.
      -1. -1. -9.88764048e-001 -9.88764048e-001 -1. -8.20224702e-001
      -3.37078631e-001 -9.43820238e-001 -9.21348333e-001
      -9.32584286e-001 -9.77528095e-001 -7.07865179e-001 -1. -1. -1.
      -8.76404524e-001 -9.88764048e-001 -1. -1. -1. -1. -1.
      -9.43820238e-001 -6.06741548e-001 -1. -1. -1. -1. -1. -1. -1. -1.
      -1. -1. -1. -1. -1. -1. -1. -1. -1. -8.20224702e-001
      5.95505595e-001 -9.32584286e-001 -8.87640476e-001 -9.10112381e-001
      -9.88764048e-001 -8.08988750e-001 -1. -1. -1. -7.41573036e-001
      -9.21348333e-001 -9.88764048e-001 -1. -9.77528095e-001 -1. -1. -1.
      -6.62921309e-001 -1. -1. -9.88764048e-001 -1. -1. -1. -1. -1. -1.
      -1. -1. -1. -9.88764048e-001 -1. -9.77528095e-001 -1. -1.
      -8.53932619e-001 5.05617976e-001 -8.08988750e-001 -7.52808988e-001
      -8.53932619e-001 -9.66292143e-001 -7.75280893e-001
      -9.66292143e-001 -9.66292143e-001 -9.88764048e-001
      -6.96629167e-001 -9.77528095e-001 -9.88764048e-001
      -9.77528095e-001 -9.88764048e-001 -1. -1. -1. -5.50561786e-001 -1.
      -1. -1. -1. -1. -1. -1. -9.55056190e-001 -9.88764048e-001 -1.
      -8.42696607e-001 -1. -1. -1. -9.77528095e-001 -9.88764048e-001 -1.
      -6.96629167e-001 -4.15730357e-001 -8.98876429e-001
      -8.31460655e-001 -9.43820238e-001 -9.88764048e-001
      -7.86516845e-001 -9.88764048e-001 -1. -9.88764048e-001
      -6.74157262e-001 -9.32584286e-001 -1. -1. -9.66292143e-001 -1. -1.
      -9.43820238e-001 -4.83146071e-001 -1. -9.88764048e-001 -1. -1. -1.
      -1. -1. -1. -1. -1. -9.66292143e-001 -1. -9.88764048e-001 -1. -1.
      -1. -1. -7.75280893e-001 2.24719048e-002 -1. -9.77528095e-001
      -9.66292143e-001 -9.88764048e-001 -7.52808988e-001 -1. -1. -1.
      -8.65168571e-001 -9.88764048e-001 -1. -1. -9.88764048e-001 -1. -1.
      -1. -6.29213452e-001 -1. -1. -1. -1. -1. -1. -1. -1. -1. -1. -1.
      -1. -1. -1. -9.88764048e-001 -1. -1. -9.77528095e-001 1.
      -8.98876429e-001 -8.31460655e-001 -8.98876429e-001
      -9.43820238e-001 -5.39325833e-001 -9.88764048e-001 -1. -1.
      -7.52808988e-001 -9.88764048e-001 -9.77528095e-001 -1.
      -9.55056190e-001 -9.88764048e-001 -1. -9.77528095e-001
      -6.62921309e-001 -9.88764048e-001 -9.88764048e-001 -1. -1. -1. -1.
      -9.88764048e-001 -9.88764048e-001 -1. -1. -9.32584286e-001 -1. -1.
      -1. -9.55056190e-001 -1. -9.88764048e-001 -7.75280893e-001
      -1.12359524e-001 -8.65168571e-001 -8.53932619e-001
      -8.98876429e-001 -9.88764048e-001 -7.41573036e-001
      -9.77528095e-001 -9.88764048e-001 -9.88764048e-001
      -7.86516845e-001 -8.98876429e-001 -1. -1. -9.66292143e-001 -1. -1.
      -9.88764048e-001 -5.50561786e-001 -1. -9.77528095e-001 -1. -1. -1.
      -1. -1. -9.88764048e-001 -9.88764048e-001 -1. -9.77528095e-001 -1.
      -1. -1. -9.88764048e-001 -1. -9.88764048e-001 -8.31460655e-001
      1.12359524e-001</_>
    <_>
      3.40533495e-001 4.66208577e-001 -3.38517308e-001 -8.57142866e-001
      -9.20634925e-001 -9.36507940e-001 -9.84126985e-001
      -4.92063463e-001 -1. -9.84126985e-001 -9.84126985e-001
      -5.39682508e-001 -1. -1. -1. -9.84126985e-001 -1. -1.
      -9.68253970e-001 -5.39682508e-001 -1. -9.84126985e-001 -1. -1. -1.
      -1. -1. -1. -1. -1. -9.52380955e-001 -1. -1. -1. -1. -1. -1.
      -8.09523821e-001 1. -7.93650746e-001 -6.50793672e-001
      -7.77777791e-001 -9.36507940e-001 -6.50793672e-001
      -9.84126985e-001 -9.68253970e-001 -1. -3.65079343e-001
      -9.68253970e-001 -9.68253970e-001 -9.68253970e-001
      -9.52380955e-001 -9.68253970e-001 -9.84126985e-001
      -8.88888896e-001 -4.92063463e-001 -1. -9.84126985e-001 -1. -1.
      -9.68253970e-001 -9.84126985e-001 -9.84126985e-001 -1. -1.
      -9.68253970e-001 -8.41269851e-001 -9.84126985e-001 -1. -1.
      -9.20634925e-001 -1. -1. -7.46031761e-001 -2.38095164e-001
      -7.61904716e-001 -8.88888896e-001 -8.73015881e-001
      -9.84126985e-001 -6.82539701e-001 -9.20634925e-001 -1. -1.
      -3.96825373e-001 -9.84126985e-001 -1. -1. -9.84126985e-001 -1.
      -9.84126985e-001 -9.84126985e-001 -2.06349134e-001 -1.
      -9.52380955e-001 -1. -1. -9.84126985e-001 -1. -1. -1. -1. -1.
      -9.04761910e-001 -1. -9.84126985e-001 -1. -9.68253970e-001 -1. -1.
      -7.46031761e-001 2.53968358e-001 -8.73015881e-001 -8.09523821e-001
      -8.73015881e-001 -9.36507940e-001 -5.23809493e-001 -1.
      -9.84126985e-001 -9.84126985e-001 -3.96825373e-001
      -8.41269851e-001 -1. -1. -9.20634925e-001 -1. -1. -9.52380955e-001
      -3.17460299e-001 -1. -9.68253970e-001 -1. -1. -9.84126985e-001 -1.
      -1. -1. -1. -1. -9.20634925e-001 -1. -1. -1. -9.52380955e-001 -1.
      -9.68253970e-001 -7.93650746e-001 6.34921789e-002 -7.77777791e-001
      -6.98412657e-001 -5.87301552e-001 -9.84126985e-001
      -3.80952358e-001 -1. -9.68253970e-001 -1. -7.93650150e-002 -1.
      -9.84126985e-001 -1. -9.68253970e-001 -1. -9.84126985e-001
      -9.52380955e-001 -4.28571403e-001 -1. -1. -1. -1. -9.84126985e-001
      -1. -1. -1. -1. -9.68253970e-001 -6.66666627e-001 -1. -1. -1.
      -9.84126985e-001 -9.84126985e-001 -1. -8.09523821e-001
      -7.46031761e-001 -6.66666627e-001 -6.98412657e-001
      -7.93650746e-001 -9.52380955e-001 -6.50793672e-001
      -9.36507940e-001 -9.52380955e-001 -9.84126985e-001
      -5.87301552e-001 -8.73015881e-001 -1. -9.84126985e-001
      -9.52380955e-001 -9.84126985e-001 -9.68253970e-001 -1.
      -4.44444418e-001 -1. -9.36507940e-001 -1. -1. -9.84126985e-001 -1.
      -9.84126985e-001 -1. -9.52380955e-001 -9.84126985e-001
      -7.30158687e-001 -1. -9.84126985e-001 -1. -9.68253970e-001
      -9.84126985e-001 -1. -6.19047582e-001 -3.80952358e-001
      -8.25396836e-001 -8.09523821e-001 -7.61904716e-001
      -9.68253970e-001 -6.19047582e-001 -1. -1. -1. -3.80952358e-001 -1.
      -1. -1. -9.68253970e-001 -9.84126985e-001 -1. -9.52380955e-001
      -2.22222149e-001 -1. -1. -1. -1. -9.68253970e-001 -1. -1.
      -9.68253970e-001 -9.84126985e-001 -9.84126985e-001
      -8.73015881e-001 -1. -1. -1. -1. -1. -9.84126985e-001
      -7.61904716e-001 7.93651342e-002 -7.61904716e-001 -6.34920597e-001
      -7.77777791e-001 -9.84126985e-001 -3.96825373e-001
      -9.84126985e-001 -9.84126985e-001 -9.68253970e-001
      -3.49206328e-001 -9.68253970e-001 -9.84126985e-001 -1.
      -9.84126985e-001 -1. -9.84126985e-001 -9.52380955e-001
      -5.39682508e-001 -1. -1. -1. -1. -1. -1. -1. -9.68253970e-001 -1.
      -9.52380955e-001 -8.25396836e-001 -1. -1. -1. -9.68253970e-001
      -9.68253970e-001 -9.84126985e-001 -8.41269851e-001
      -1.74603105e-001 -7.61904716e-001 -9.04761910e-001
      -8.57142866e-001 -9.68253970e-001 -6.82539701e-001 -1.
      -9.84126985e-001 -9.84126985e-001 -6.82539701e-001 -1. -1. -1.
      -9.84126985e-001 -9.84126985e-001 -9.84126985e-001 -1.
      -2.53968239e-001 -1. -9.52380955e-001 -1. -1. -9.84126985e-001 -1.
      -1. -1. -1. -1. -8.57142866e-001 -1. -1. -1. -9.84126985e-001 -1.
      -9.84126985e-001 -6.66666627e-001 5.23809671e-001</_>
    <_>
      8.15602779e-001 8.72340441e-001 -1.45153046e-001 -6.25000000e-001
      -6.45833313e-001 -8.95833313e-001 -9.79166687e-001
      -2.70833313e-001 -9.58333313e-001 -1. -1. -3.33333313e-001
      -9.58333313e-001 -1. -9.79166687e-001 -9.58333313e-001
      -9.58333313e-001 -9.79166687e-001 -9.16666687e-001
      -3.75000000e-001 -1. -9.79166687e-001 -1. -1. -1. -1. -1. -1.
      -9.79166687e-001 -1. -7.91666627e-001 -1. -1. -1. -1. -1. -1.
      -5.00000000e-001 4.16666746e-001 -7.29166627e-001 -5.41666627e-001
      -4.79166627e-001 -9.79166687e-001 -5.41666627e-001
      -9.79166687e-001 -9.37500000e-001 -1. -6.25000000e-002
      -9.16666687e-001 -1. -9.79166687e-001 -9.16666687e-001
      -9.58333313e-001 -9.79166687e-001 -9.37500000e-001
      -3.33333313e-001 -1. -9.79166687e-001 -1. -1. -9.79166687e-001 -1.
      -1. -9.58333313e-001 -1. -9.79166687e-001 -7.29166627e-001 -1. -1.
      -1. -8.95833313e-001 -9.79166687e-001 -9.79166687e-001
      -6.45833313e-001 -2.70833313e-001 -6.87500000e-001
      -6.87500000e-001 -8.12500000e-001 -9.58333313e-001
      -5.83333313e-001 -1. -9.79166687e-001 -1. -2.29166627e-001
      -9.79166687e-001 -9.79166687e-001 -1. -9.37500000e-001 -1. -1. -1.
      -2.70833313e-001 -1. -9.58333313e-001 -1. -1. -1. -1. -1.
      -9.79166687e-001 -1. -1. -8.54166627e-001 -1. -1. -1. -1. -1. -1.
      -6.45833313e-001 8.75000000e-001 -7.70833313e-001 -4.58333313e-001
      -6.45833313e-001 -9.37500000e-001 -3.75000000e-001
      -9.79166687e-001 -9.37500000e-001 -9.58333313e-001
      -3.33333313e-001 -9.16666687e-001 -1. -1. -9.79166687e-001
      -9.79166687e-001 -9.79166687e-001 -9.58333313e-001
      -3.12500000e-001 -1. -1. -9.79166687e-001 -1. -9.58333313e-001 -1.
      -1. -1. -1. -1. -7.91666627e-001 -1. -1. -1. -9.79166687e-001 -1.
      -1. -8.12500000e-001 3.75000000e-001 -6.45833313e-001
      -7.91666627e-001 -4.79166627e-001 -8.95833313e-001
      -6.25000000e-002 -9.79166687e-001 -9.79166687e-001
      -9.58333313e-001 2.08333731e-002 -1. -9.58333313e-001 -1.
      -9.79166687e-001 -1. -9.79166687e-001 -9.79166687e-001
      -2.91666627e-001 -1. -9.79166687e-001 -1. -1. -9.79166687e-001 -1.
      -1. -9.79166687e-001 -1. -9.58333313e-001 -6.45833313e-001 -1. -1.
      -1. -9.37500000e-001 -1. -1. -7.29166627e-001 -5.00000000e-001
      -5.20833313e-001 -5.41666627e-001 -6.45833313e-001
      -9.37500000e-001 -4.58333313e-001 -9.58333313e-001
      -9.37500000e-001 -9.58333313e-001 -6.25000000e-002
      -8.54166627e-001 -9.58333313e-001 -1. -9.37500000e-001 -1.
      -9.79166687e-001 -8.95833313e-001 -4.79166627e-001 -1. -1. -1. -1.
      -1. -1. -1. -1. -9.79166687e-001 -9.79166687e-001 -6.87500000e-001
      -1. -1. -9.79166687e-001 -9.37500000e-001 -9.79166687e-001
      -9.79166687e-001 -6.45833313e-001 -3.75000000e-001
      -6.45833313e-001 -6.45833313e-001 -8.12500000e-001
      -9.58333313e-001 -5.20833313e-001 -9.79166687e-001 -1.
      -9.79166687e-001 -7.08333313e-001 -9.58333313e-001 -1.
      -9.58333313e-001 -9.79166687e-001 -9.79166687e-001 -1. -1.
      -3.33333313e-001 -1. -9.58333313e-001 -1. -1. -1. -1. -1. -1. -1.
      -9.58333313e-001 -8.54166627e-001 -1. -1. -1. -9.16666687e-001 -1.
      -1. -5.20833313e-001 1. -5.83333313e-001 -4.16666627e-001
      -5.41666627e-001 -8.95833313e-001 -6.45833313e-001
      -9.79166687e-001 -9.16666687e-001 -9.37500000e-001
      -1.66666627e-001 -8.95833313e-001 -9.58333313e-001
      -9.79166687e-001 -8.95833313e-001 -9.79166687e-001
      -9.58333313e-001 -9.79166687e-001 -6.04166627e-001 -1.
      -9.58333313e-001 -9.79166687e-001 -1. -9.37500000e-001
      -9.79166687e-001 -1. -9.58333313e-001 -1. -9.79166687e-001
      -5.83333313e-001 -1. -1. -1. -9.37500000e-001 -9.79166687e-001
      -9.58333313e-001 -6.66666627e-001 -4.16666627e-001
      -4.58333313e-001 -7.29166627e-001 -7.70833313e-001
      -9.58333313e-001 -4.79166627e-001 -9.37500000e-001
      -9.58333313e-001 -9.37500000e-001 -1.87500000e-001
      -9.79166687e-001 -9.58333313e-001 -1. -9.37500000e-001
      -9.58333313e-001 -1. -9.79166687e-001 -1.45833313e-001 -1.
      -9.58333313e-001 -1. -9.79166687e-001 -9.79166687e-001 -1. -1. -1.
      -9.79166687e-001 -9.79166687e-001 -7.70833313e-001 -1. -1. -1.
      -9.79166687e-001 -1. -9.79166687e-001 -3.95833313e-001
      -2.91666627e-001</_>
    <_>
      4.20249701e-001 5.45565844e-001 -2.91912198e-001 -7.81512618e-001
      -8.48739505e-001 -9.15966392e-001 -1. -5.46218455e-001 -1.
      -9.83193278e-001 -1. -4.78991568e-001 -9.66386557e-001
      -9.83193278e-001 -1. -1. -1. -9.83193278e-001 -9.49579835e-001
      -5.79831898e-001 -1. -9.83193278e-001 -1. -1. -1. -1. -1. -1. -1.
      -1. -8.65546227e-001 -1. -1. -1. -1. -9.66386557e-001 -1.
      -7.14285731e-001 8.48739624e-001 -6.97479010e-001 -4.62184846e-001
      -7.47899175e-001 -9.83193278e-001 -6.63865566e-001
      -9.66386557e-001 -9.83193278e-001 -1. -3.61344516e-001
      -9.66386557e-001 -9.83193278e-001 -1. -9.49579835e-001
      -9.83193278e-001 -1. -9.66386557e-001 -4.45378125e-001 -1. -1. -1.
      -1. -9.66386557e-001 -1. -9.83193278e-001 -9.83193278e-001 -1.
      -9.66386557e-001 -6.97479010e-001 -1. -1. -1. -8.99159670e-001 -1.
      -8.99159670e-001 -6.97479010e-001 -4.45378125e-001
      -7.64705896e-001 -8.82352948e-001 -8.82352948e-001
      -9.83193278e-001 -6.47058845e-001 -1. -9.83193278e-001 -1.
      -5.29411733e-001 -1. -1. -1. -9.83193278e-001 -1. -9.83193278e-001
      -1. -4.45378125e-001 -1. -9.83193278e-001 -1. -1. -1. -1. -1. -1.
      -1. -1. -9.15966392e-001 -1. -1. -1. -1. -1. -1. -7.14285731e-001
      1. -8.15126061e-001 -6.30252123e-001 -7.31092453e-001
      -9.83193278e-001 -6.30252123e-001 -1. -9.83193278e-001
      -9.83193278e-001 -6.63865566e-001 -8.48739505e-001
      -9.83193278e-001 -1. -9.66386557e-001 -9.32773113e-001 -1.
      -9.83193278e-001 -4.95798290e-001 -1. -9.83193278e-001 -1. -1.
      -9.83193278e-001 -1. -9.83193278e-001 -9.66386557e-001
      -9.83193278e-001 -1. -9.15966392e-001 -1. -9.66386557e-001 -1.
      -9.83193278e-001 -1. -9.66386557e-001 -7.98319340e-001
      4.62184906e-001 -7.98319340e-001 -7.14285731e-001 -6.47058845e-001
      -9.83193278e-001 -1.09243631e-001 -1. -9.66386557e-001
      -9.49579835e-001 -3.27731073e-001 -9.49579835e-001
      -9.49579835e-001 -9.83193278e-001 -1. -1. -1. -9.66386557e-001
      -4.62184846e-001 -1. -9.83193278e-001 -1. -1. -9.83193278e-001 -1.
      -1. -1. -1. -9.49579835e-001 -7.31092453e-001 -1. -1. -1.
      -8.48739505e-001 -1. -9.66386557e-001 -7.31092453e-001
      -6.97479010e-001 -7.81512618e-001 -5.79831898e-001
      -7.98319340e-001 -9.83193278e-001 -6.30252123e-001
      -9.66386557e-001 -1. -9.66386557e-001 -4.28571403e-001
      -9.66386557e-001 -1. -1. -9.83193278e-001 -1. -9.66386557e-001 -1.
      -2.60504186e-001 -1. -9.83193278e-001 -1. -1. -9.83193278e-001 -1.
      -1. -9.83193278e-001 -9.66386557e-001 -1. -7.98319340e-001 -1. -1.
      -1. -9.83193278e-001 -9.83193278e-001 -9.66386557e-001
      -8.15126061e-001 7.56303072e-002 -8.48739505e-001 -8.15126061e-001
      -8.31932783e-001 -9.66386557e-001 -4.95798290e-001
      -9.66386557e-001 -1. -1. -5.96638620e-001 -9.49579835e-001 -1. -1.
      -1. -9.83193278e-001 -1. -9.66386557e-001 -3.61344516e-001 -1. -1.
      -1. -1. -1. -1. -1. -1. -1. -1. -9.66386557e-001 -1. -1. -1.
      -9.49579835e-001 -1. -1. -7.81512618e-001 7.81512737e-001
      -7.47899175e-001 -5.46218455e-001 -5.79831898e-001
      -9.83193278e-001 -5.79831898e-001 -9.15966392e-001
      -9.66386557e-001 -9.83193278e-001 -4.62184846e-001
      -9.66386557e-001 -9.49579835e-001 -9.83193278e-001
      -9.83193278e-001 -9.83193278e-001 -1. -9.66386557e-001
      -3.94957960e-001 -1. -1. -1. -1. -9.83193278e-001 -1. -1. -1. -1.
      -9.49579835e-001 -7.64705896e-001 -1. -1. -1. -9.32773113e-001
      -9.83193278e-001 -1. -6.97479010e-001 -3.94957960e-001
      -7.64705896e-001 -7.81512618e-001 -6.80672288e-001
      -9.83193278e-001 -7.31092453e-001 -1. -1. -1. -5.29411733e-001
      -9.66386557e-001 -1. -1. -9.83193278e-001 -1. -9.83193278e-001 -1.
      -3.10924351e-001 -1. -9.83193278e-001 -1. -1. -1. -1. -1. -1. -1.
      -9.83193278e-001 -8.48739505e-001 -1. -1. -1. -9.83193278e-001
      -9.66386557e-001 -1. -6.47058845e-001 4.28571463e-001</_>
    <_>
      7.22579956e-001 7.71796584e-001 -1.75364077e-001 -7.62376249e-001
      -8.01980197e-001 -8.41584146e-001 -1. -4.85148549e-001 -1. -1. -1.
      -1.28712893e-001 -9.60396051e-001 -1. -1. -9.80198026e-001
      -9.80198026e-001 -1. -1. -4.65346515e-001 -1. -9.40594077e-001 -1.
      -1. -1. -1. -1. -1. -1. -1. -8.81188154e-001 -1. -1. -1.
      -9.80198026e-001 -1. -1. -6.03960395e-001 8.81188035e-001
      -6.23762369e-001 -5.64356446e-001 -5.44554472e-001
      -9.00990129e-001 -4.85148549e-001 -9.80198026e-001
      -9.60396051e-001 -1. -3.46534669e-001 -1. -9.20792103e-001
      -9.60396051e-001 -8.61386120e-001 -9.60396051e-001
      -9.80198026e-001 -9.80198026e-001 -4.25742567e-001 -1. -1. -1. -1.
      -1. -1. -1. -1. -1. -9.80198026e-001 -6.63366318e-001 -1.
      -9.80198026e-001 -1. -9.80198026e-001 -9.80198026e-001 -1.
      -5.84158421e-001 -2.67326772e-001 -7.02970266e-001
      -7.42574275e-001 -8.21782172e-001 -9.60396051e-001
      -6.63366318e-001 -1. -1. -9.80198026e-001 -3.46534669e-001 -1.
      -9.80198026e-001 -9.80198026e-001 -1. -9.80198026e-001
      -9.60396051e-001 -1. -2.87128747e-001 -1. -9.40594077e-001 -1. -1.
      -9.80198026e-001 -1. -1. -9.80198026e-001 -1. -1. -9.20792103e-001
      -1. -1. -1. -1. -1. -1. -7.02970266e-001 1. -7.22772241e-001
      -4.85148549e-001 -7.42574275e-001 -9.60396051e-001
      -5.44554472e-001 -9.60396051e-001 -1. -1. -1.48514867e-001
      -9.00990129e-001 -9.80198026e-001 -1. -9.40594077e-001 -1.
      -9.80198026e-001 -1. -4.85148549e-001 -1. -1. -1. -1.
      -9.80198026e-001 -1. -1. -1. -9.60396051e-001 -9.80198026e-001
      -8.41584146e-001 -1. -9.80198026e-001 -1. -9.80198026e-001 -1. -1.
      -8.61386120e-001 5.04950523e-001 -7.42574275e-001 -6.43564343e-001
      -5.84158421e-001 -9.00990129e-001 -2.47524738e-001 -1.
      -9.40594077e-001 -9.40594077e-001 2.67326713e-001 -1.
      -9.60396051e-001 -1. -1. -9.60396051e-001 -1. -9.60396051e-001
      -3.46534669e-001 -1. -1. -1. -1. -9.60396051e-001 -1. -1. -1.
      -9.40594077e-001 -1. -6.43564343e-001 -1. -1. -1. -9.60396051e-001
      -9.80198026e-001 -1. -8.21782172e-001 -6.63366318e-001
      -6.83168292e-001 -4.45544541e-001 -8.41584146e-001
      -9.80198026e-001 -5.44554472e-001 -9.60396051e-001
      -9.80198026e-001 -1. -2.07920790e-001 -9.20792103e-001 -1.
      -9.80198026e-001 -9.20792103e-001 -9.80198026e-001 -1.
      -9.80198026e-001 -1.68316841e-001 -1. -9.80198026e-001 -1. -1.
      -9.60396051e-001 -1. -1. -1. -9.60396051e-001 -9.00990129e-001
      -9.20792103e-001 -1. -9.80198026e-001 -1. -9.60396051e-001 -1.
      -9.80198026e-001 -5.44554472e-001 -1.48514867e-001
      -7.82178223e-001 -7.42574275e-001 -8.01980197e-001
      -9.80198026e-001 -4.05940592e-001 -9.80198026e-001
      -9.80198026e-001 -9.80198026e-001 -3.66336644e-001
      -9.60396051e-001 -1. -1. -9.80198026e-001 -9.80198026e-001
      -9.80198026e-001 -9.60396051e-001 -3.06930721e-001
      -9.80198026e-001 -9.80198026e-001 -1. -1. -1. -1. -1. -1. -1. -1.
      -9.20792103e-001 -1. -1. -1. -1. -1. -1. -5.84158421e-001
      7.22772241e-001 -6.63366318e-001 -4.45544541e-001 -6.03960395e-001
      -8.81188154e-001 -5.24752498e-001 -9.40594077e-001
      -9.20792103e-001 -9.80198026e-001 -2.87128747e-001
      -9.20792103e-001 -9.80198026e-001 -1. -9.40594077e-001 -1. -1.
      -9.20792103e-001 -4.45544541e-001 -1. -1. -1. -1. -9.40594077e-001
      -9.80198026e-001 -1. -9.80198026e-001 -1. -9.60396051e-001
      -6.03960395e-001 -1. -1. -9.80198026e-001 -9.60396051e-001 -1. -1.
      -8.01980197e-001 -2.67326772e-001 -6.63366318e-001
      -7.02970266e-001 -8.01980197e-001 -9.60396051e-001
      -4.05940592e-001 -9.20792103e-001 -9.80198026e-001 -1.
      -5.24752498e-001 -9.80198026e-001 -9.80198026e-001
      -9.80198026e-001 -9.60396051e-001 -9.80198026e-001
      -9.80198026e-001 -9.60396051e-001 -4.95049953e-002 -1.
      -9.60396051e-001 -1. -1. -1. -1. -1. -9.80198026e-001 -1. -1.
      -8.61386120e-001 -1. -1. -1. -9.40594077e-001 -1. -1.
      -5.04950523e-001 1.48514867e-001</_>
    <_>
      7.94392586e-001 8.94080997e-001 -1.36210263e-001 -7.50000000e-001
      -8.12500000e-001 -8.54166627e-001 -9.79166687e-001
      -5.41666627e-001 -9.79166687e-001 -1. -9.79166687e-001
      -2.70833313e-001 -9.79166687e-001 -9.79166687e-001
      -9.58333313e-001 -9.37500000e-001 -1. -9.79166687e-001
      -9.79166687e-001 -2.50000000e-001 -1. -9.79166687e-001 -1. -1. -1.
      -1. -1. -9.79166687e-001 -1. -9.79166687e-001 -8.95833313e-001 -1.
      -1. -1. -9.58333313e-001 -1. -1. -6.45833313e-001 1.
      -4.79166627e-001 -6.45833313e-001 -6.87500000e-001
      -9.37500000e-001 -3.75000000e-001 -9.79166687e-001
      -9.58333313e-001 -9.16666687e-001 -1.45833313e-001
      -9.79166687e-001 -9.58333313e-001 -1. -9.79166687e-001
      -9.58333313e-001 -1. -9.79166687e-001 -1.66666627e-001 -1. -1. -1.
      -1. -9.37500000e-001 -1. -1. -9.58333313e-001 -1. -1.
      -8.12500000e-001 -9.79166687e-001 -1. -1. -8.95833313e-001
      -9.79166687e-001 -9.79166687e-001 -6.87500000e-001
      -2.91666627e-001 -6.25000000e-001 -8.33333313e-001
      -8.54166627e-001 -9.58333313e-001 -5.83333313e-001
      -9.79166687e-001 -9.58333313e-001 -9.79166687e-001
      -2.29166627e-001 -9.79166687e-001 -9.37500000e-001 -1.
      -9.58333313e-001 -9.58333313e-001 -9.79166687e-001
      -9.37500000e-001 -3.12500000e-001 -1. -9.16666687e-001 -1. -1.
      -9.58333313e-001 -1. -1. -9.58333313e-001 -9.58333313e-001 -1.
      -8.54166627e-001 -1. -1. -9.79166687e-001 -9.37500000e-001 -1.
      -9.79166687e-001 -5.20833313e-001 4.58333373e-001 -7.50000000e-001
      -5.62500000e-001 -7.91666627e-001 -9.37500000e-001
      -3.54166627e-001 -9.79166687e-001 -9.58333313e-001
      -9.79166687e-001 -3.95833313e-001 -8.95833313e-001
      -9.37500000e-001 -1. -1. -9.58333313e-001 -9.79166687e-001 -1.
      -3.75000000e-001 -1. -9.79166687e-001 -9.79166687e-001 -1.
      -9.37500000e-001 -1. -1. -1. -1. -1. -6.66666627e-001 -1. -1.
      -9.79166687e-001 -8.95833313e-001 -1. -1. -7.91666627e-001
      4.16666746e-001 -7.29166627e-001 -7.50000000e-001 -3.54166627e-001
      -9.58333313e-001 4.16667461e-002 -9.79166687e-001 -9.58333313e-001
      -9.58333313e-001 -6.25000000e-002 -9.79166687e-001 -1.
      -9.79166687e-001 -9.79166687e-001 -1. -1. -9.58333313e-001
      -2.29166627e-001 -1. -9.58333313e-001 -1. -1. -9.79166687e-001 -1.
      -1. -1. -9.79166687e-001 -9.79166687e-001 -6.04166627e-001 -1. -1.
      -1. -9.37500000e-001 -1. -1. -7.29166627e-001 -6.66666627e-001
      -7.08333313e-001 -4.16666627e-001 -5.62500000e-001
      -9.79166687e-001 -5.41666627e-001 -9.58333313e-001 -1. -1.
      -2.29166627e-001 -8.33333313e-001 -9.79166687e-001
      -9.79166687e-001 -9.58333313e-001 -9.79166687e-001
      -9.79166687e-001 -9.58333313e-001 -1.45833313e-001 -1. -1. -1. -1.
      -9.79166687e-001 -9.79166687e-001 -1. -9.79166687e-001 -1. -1.
      -7.50000000e-001 -1. -9.79166687e-001 -1. -9.79166687e-001 -1.
      -9.79166687e-001 -6.25000000e-001 -2.08333313e-001
      -7.91666627e-001 -9.37500000e-001 -7.70833313e-001 -1.
      -2.91666627e-001 -1. -9.58333313e-001 -1. -1.66666627e-001 -1. -1.
      -1. -9.58333313e-001 -1. -1. -1. -1.87500000e-001 -1. -1. -1. -1.
      -1. -1. -1. -1. -1. -1. -7.50000000e-001 -1. -1. -1.
      -9.79166687e-001 -1. -9.79166687e-001 -6.25000000e-001
      7.29166746e-001 -6.25000000e-001 -1.87500000e-001 -8.33333313e-001
      -9.58333313e-001 -5.62500000e-001 -9.37500000e-001
      -9.58333313e-001 -1. -2.91666627e-001 -8.95833313e-001 -1.
      -9.79166687e-001 -9.16666687e-001 -9.79166687e-001
      -9.79166687e-001 -9.58333313e-001 -5.00000000e-001 -1. -1. -1. -1.
      -9.79166687e-001 -1. -1. -1. -1. -1. -8.54166627e-001 -1. -1.
      -9.58333313e-001 -9.58333313e-001 -1. -9.37500000e-001
      -6.04166627e-001 1.87500000e-001 -6.66666627e-001 -7.91666627e-001
      -7.70833313e-001 -9.37500000e-001 -3.33333313e-001
      -9.79166687e-001 -9.79166687e-001 -9.58333313e-001
      -5.00000000e-001 -8.54166627e-001 -9.79166687e-001 -1.
      -9.16666687e-001 -1. -1. -9.37500000e-001 -6.25000000e-002 -1.
      -9.79166687e-001 -1. -1. -9.58333313e-001 -1. -1. -9.79166687e-001
      -1. -9.79166687e-001 -8.12500000e-001 -1. -1. -1. -9.79166687e-001
      -1. -9.79166687e-001 -5.83333313e-001 2.50000000e-001</_>
    <_>
      5.95015645e-001 6.83627486e-001 -2.20293522e-001 -6.85185194e-001
      -7.22222209e-001 -8.70370388e-001 -9.07407403e-001
      -4.25925910e-001 -1. -1. -1. -7.22222209e-001 -9.44444418e-001
      -9.62962985e-001 -1. -9.44444418e-001 -9.81481493e-001 -1.
      -9.81481493e-001 -3.70370388e-001 -1. -9.81481493e-001
      -9.81481493e-001 -1. -1. -1. -1. -1. -9.81481493e-001 -1.
      -9.44444418e-001 -1. -9.81481493e-001 -1. -9.62962985e-001 -1. -1.
      -6.11111104e-001 7.03703761e-001 -5.37037015e-001 -4.81481493e-001
      -7.03703701e-001 -9.81481493e-001 -5.74074030e-001
      -9.44444418e-001 -9.44444418e-001 -9.44444418e-001
      -2.22222209e-001 -9.81481493e-001 -9.62962985e-001 -1.
      -9.81481493e-001 -9.62962985e-001 -9.25925910e-001
      -9.81481493e-001 -5.74074030e-001 -1. -9.62962985e-001 -1. -1.
      -9.62962985e-001 -1. -9.81481493e-001 -1. -9.44444418e-001
      -9.81481493e-001 -7.59259224e-001 -1. -9.81481493e-001
      -9.81481493e-001 -9.44444418e-001 -9.81481493e-001 -1.
      -5.74074030e-001 -5.00000000e-001 -6.48148179e-001
      -6.85185194e-001 -8.70370388e-001 -9.44444418e-001
      -5.92592597e-001 -9.81481493e-001 -9.81481493e-001
      -9.81481493e-001 -5.00000000e-001 -9.62962985e-001
      -9.62962985e-001 -9.81481493e-001 -9.62962985e-001
      -9.81481493e-001 -9.62962985e-001 -9.81481493e-001
      -3.88888896e-001 -1. -1. -1. -1. -1. -1. -1. -1. -1.
      -9.81481493e-001 -8.14814806e-001 -1. -9.81481493e-001 -1.
      -9.81481493e-001 -9.81481493e-001 -9.81481493e-001
      -7.22222209e-001 5.55555582e-001 -7.40740776e-001 -6.11111104e-001
      -7.96296299e-001 -9.44444418e-001 -5.37037015e-001
      -9.62962985e-001 -9.81481493e-001 -9.81481493e-001
      -2.96296299e-001 -9.25925910e-001 -9.44444418e-001 -1. -1.
      -9.62962985e-001 -9.81481493e-001 -9.81481493e-001
      -4.07407403e-001 -1. -9.44444418e-001 -1. -1. -9.81481493e-001 -1.
      -1. -9.81481493e-001 -1. -9.81481493e-001 -7.59259224e-001 -1.
      -9.81481493e-001 -1. -9.62962985e-001 -9.62962985e-001 -1.
      -7.03703701e-001 5.55555820e-002 -4.25925910e-001 -5.74074030e-001
      -4.44444418e-001 -9.07407403e-001 -5.37037015e-001
      -9.62962985e-001 -9.62962985e-001 -9.25925910e-001
      -5.00000000e-001 -1. -9.62962985e-001 -1. -9.62962985e-001
      -9.62962985e-001 -9.62962985e-001 -1. -6.48148179e-001 -1.
      -9.81481493e-001 -1. -9.62962985e-001 -1. -1. -9.81481493e-001 -1.
      -9.62962985e-001 -9.25925910e-001 -7.22222209e-001 -1. -1.
      -9.81481493e-001 -9.44444418e-001 -9.44444418e-001
      -9.81481493e-001 -6.85185194e-001 -4.44444418e-001
      -6.29629612e-001 -4.62962985e-001 -7.96296299e-001
      -9.81481493e-001 -6.85185194e-001 -9.62962985e-001
      -9.62962985e-001 -9.81481493e-001 -3.88888896e-001
      -9.07407403e-001 -9.62962985e-001 -1. -8.88888896e-001
      -9.81481493e-001 -1. -9.81481493e-001 -3.88888896e-001 -1.
      -9.07407403e-001 -1. -1. -9.44444418e-001 -1. -1. -1.
      -9.81481493e-001 -1. -7.22222209e-001 -1. -9.62962985e-001 -1.
      -9.81481493e-001 -9.81481493e-001 -9.81481493e-001
      -7.59259224e-001 -7.40740895e-002 -7.59259224e-001
      -8.88888896e-001 -8.70370388e-001 -9.62962985e-001
      -5.92592597e-001 -9.81481493e-001 -1. -9.81481493e-001
      -3.70370388e-001 -1. -9.81481493e-001 -1. -9.81481493e-001 -1.
      -9.62962985e-001 -1. -4.62962985e-001 -1. -9.44444418e-001 -1. -1.
      -9.81481493e-001 -1. -1. -1. -9.62962985e-001 -1. -8.70370388e-001
      -1. -1. -1. -1. -1. -1. -7.03703701e-001 1. -4.44444418e-001
      -4.07407403e-001 -6.85185194e-001 -8.70370388e-001
      -6.85185194e-001 -9.62962985e-001 -9.07407403e-001
      -9.62962985e-001 -5.92592597e-001 -9.62962985e-001
      -9.81481493e-001 -1. -9.62962985e-001 -9.62962985e-001
      -9.62962985e-001 -9.62962985e-001 -5.92592597e-001
      -9.81481493e-001 -9.81481493e-001 -1. -1. -1. -9.62962985e-001 -1.
      -9.81481493e-001 -9.44444418e-001 -8.88888896e-001
      -7.40740776e-001 -1. -9.81481493e-001 -1. -9.07407403e-001 -1.
      -9.81481493e-001 -7.40740776e-001 -2.59259224e-001
      -7.40740776e-001 -5.37037015e-001 -7.59259224e-001
      -9.44444418e-001 -6.11111104e-001 -9.62962985e-001 -1.
      -9.81481493e-001 -4.07407403e-001 -9.44444418e-001 -1. -1.
      -8.88888896e-001 -9.44444418e-001 -1. -9.81481493e-001
      -4.25925910e-001 -9.81481493e-001 -9.25925910e-001
      -9.81481493e-001 -1. -1. -1. -1. -9.81481493e-001 -1. -1.
      -8.14814806e-001 -1. -1. -1. -9.62962985e-001 -1. -9.81481493e-001
      -5.18518507e-001 1.85185671e-002</_>
    <_>
      1. 1. -6.12760186e-002 -5.89375019e-001 -5.66562474e-001
      -8.85937512e-001 -8.85937512e-001 -2.01562464e-001
      -9.54375029e-001 -9.31562483e-001 -9.77187514e-001
      -1.78749979e-001 -9.54375029e-001 -9.77187514e-001
      -9.31562483e-001 -8.63124967e-001 -9.31562483e-001 -1.
      -9.08749998e-001 -3.38437498e-001 -1. -9.77187514e-001
      -9.77187514e-001 -1. -9.31562483e-001 -1. -9.77187514e-001
      -9.77187514e-001 -1. -9.54375029e-001 -6.34999990e-001 -1. -1.
      -9.77187514e-001 -9.31562483e-001 -1. -1. -5.89375019e-001
      -1.55937493e-001 -7.03437507e-001 -4.29687500e-001
      -6.80624962e-001 -8.63124967e-001 -4.06875014e-001
      -9.08749998e-001 -9.08749998e-001 -9.08749998e-001
      -1.78749979e-001 -8.17499995e-001 -9.54375029e-001 -1.
      -9.54375029e-001 -9.31562483e-001 -1. -9.31562483e-001
      -4.75312471e-001 -9.77187514e-001 -9.08749998e-001 -1. -1. -1. -1.
      -9.54375029e-001 -1. -1. -9.08749998e-001 -6.34999990e-001 -1. -1.
      -1. -8.63124967e-001 -9.77187514e-001 -9.77187514e-001
      -5.89375019e-001 -3.15624952e-001 -5.43749988e-001
      -7.03437507e-001 -8.63124967e-001 -9.31562483e-001
      -5.20937502e-001 -9.77187514e-001 -1. -9.77187514e-001
      -2.92812467e-001 -9.08749998e-001 -9.54375029e-001
      -9.54375029e-001 -8.85937512e-001 -1. -1. -8.85937512e-001
      -2.01562464e-001 -9.77187514e-001 -1. -9.54375029e-001 -1. -1. -1.
      -1. -9.54375029e-001 -9.31562483e-001 -1. -6.80624962e-001 -1. -1.
      -1. -9.08749998e-001 -9.77187514e-001 -9.77187514e-001
      -3.84062469e-001 1.86249971e-001 -8.63124967e-001 -4.29687500e-001
      -8.17499995e-001 -9.31562483e-001 -5.89375019e-001
      -9.54375029e-001 -1. -9.77187514e-001 1.17812514e-001
      -8.40312481e-001 -9.77187514e-001 -9.31562483e-001
      -9.77187514e-001 -1. -1. -9.77187514e-001 -1.10312462e-001 -1.
      -9.54375029e-001 -1. -1. -9.77187514e-001 -1. -1. -1.
      -9.77187514e-001 -1. -9.77187514e-001 -9.77187514e-001 -1. -1.
      -9.31562483e-001 -9.77187514e-001 -1. -7.49062479e-001
      6.19687557e-001 -4.98124957e-001 -6.57812476e-001 -4.29687500e-001
      -9.54375029e-001 -4.18750048e-002 -9.77187514e-001
      -8.85937512e-001 -9.08749998e-001 -3.61249983e-001
      -9.31562483e-001 -1. -1. -9.54375029e-001 -1. -9.77187514e-001
      -9.31562483e-001 -3.38437498e-001 -1. -1. -1. -1. -1. -1. -1.
      -9.77187514e-001 -9.77187514e-001 -9.31562483e-001
      -6.57812476e-001 -1. -1. -1. -9.31562483e-001 -9.54375029e-001
      -9.77187514e-001 -7.03437507e-001 -2.01562464e-001
      -5.89375019e-001 -6.12187505e-001 -4.06875014e-001
      -8.85937512e-001 -7.03437507e-001 -9.08749998e-001 -1.
      -9.54375029e-001 1.86249971e-001 -8.85937512e-001 -1.
      -9.54375029e-001 -9.77187514e-001 -9.77187514e-001
      -9.31562483e-001 -8.63124967e-001 -2.69999981e-001 -1.
      -9.77187514e-001 -1. -1. -9.08749998e-001 -9.77187514e-001 -1.
      -9.54375029e-001 -1. -9.77187514e-001 -7.03437507e-001 -1. -1. -1.
      -9.54375029e-001 -1. -1. -5.66562474e-001 -4.06875014e-001
      -4.98124957e-001 -5.20937502e-001 -7.94687510e-001
      -9.08749998e-001 -6.12187505e-001 -9.31562483e-001
      -9.54375029e-001 -1. -4.52499986e-001 -9.31562483e-001 -1.
      -9.77187514e-001 -9.31562483e-001 -9.08749998e-001 -1.
      -9.54375029e-001 -6.46874905e-002 -1. -9.77187514e-001 -1. -1.
      -9.77187514e-001 -1. -9.77187514e-001 -9.77187514e-001 -1.
      -9.77187514e-001 -8.63124967e-001 -1. -1. -1. -9.77187514e-001 -1.
      -9.77187514e-001 -5.43749988e-001 5.28437495e-001 -7.26249993e-001
      -4.06875014e-001 -8.17499995e-001 -9.54375029e-001
      -5.66562474e-001 -9.31562483e-001 -9.08749998e-001
      -9.77187514e-001 -1.10312462e-001 -7.94687510e-001
      -9.77187514e-001 -1. -8.17499995e-001 -9.77187514e-001 -1.
      -7.03437507e-001 -3.38437498e-001 -1. -1. -1. -1. -1. -1. -1. -1.
      -1. -1. -8.40312481e-001 -1. -1. -1. -9.31562483e-001 -1.
      -9.08749998e-001 -6.12187505e-001 1.40625000e-001 -5.66562474e-001
      -5.20937502e-001 -6.80624962e-001 -9.08749998e-001
      -2.69999981e-001 -9.54375029e-001 -9.54375029e-001 -1.
      -1.10312462e-001 -9.31562483e-001 -9.54375029e-001
      -9.31562483e-001 -9.77187514e-001 -9.31562483e-001
      -9.77187514e-001 -8.85937512e-001 -4.06875014e-001 -1.
      -9.54375029e-001 -1. -1. -1. -1. -1. -9.77187514e-001 -1.
      -9.77187514e-001 -6.12187505e-001 -1. -9.54375029e-001 -1.
      -9.77187514e-001 -9.54375029e-001 -1. -5.66562474e-001
      -2.24375010e-001</_>
    <_>
      1. 1. -4.37250733e-002 -7.29779422e-001 -5.27113974e-001
      -7.52297819e-001 -1. -3.01930189e-001 -1. -9.54963207e-001
      -9.77481604e-001 -3.69485319e-001 -1. -1. -1. -9.32444870e-001 -1.
      -1. -9.32444870e-001 -1.89338267e-001 -1. -9.54963207e-001 -1. -1.
      -1. -1. -1. -1. -1. -1. -8.87408078e-001 -1. -9.77481604e-001 -1.
      -9.77481604e-001 -9.77481604e-001 -1. -3.92003715e-001
      5.98805070e-001 -4.82077241e-001 -4.59558845e-001 -5.94669104e-001
      -8.42371345e-001 -5.04595637e-001 -9.77481604e-001
      -9.77481604e-001 -1. -3.01930189e-001 -9.77481604e-001
      -9.54963207e-001 -1. -9.54963207e-001 -9.77481604e-001 -1.
      -9.09926474e-001 -4.14522052e-001 -1. -9.09926474e-001 -1. -1.
      -9.77481604e-001 -1. -1. -9.32444870e-001 -1. -9.77481604e-001
      -7.29779422e-001 -1. -9.77481604e-001 -1. -9.54963207e-001
      -9.54963207e-001 -1. -5.27113974e-001 3.58455181e-002
      -6.62224293e-001 -7.97334552e-001 -8.64889741e-001
      -9.54963207e-001 -4.14522052e-001 -9.77481604e-001 -1. -1.
      -5.04595637e-001 -9.09926474e-001 -1. -1. -9.32444870e-001 -1.
      -9.77481604e-001 -1. 3.58455181e-002 -1. -1. -1. -1.
      -9.54963207e-001 -1. -1. -1. -1. -9.77481604e-001 -7.52297819e-001
      -1. -9.09926474e-001 -1. -9.77481604e-001 -1. -1. -3.69485319e-001
      6.66360259e-001 -6.62224293e-001 -5.04595637e-001 -7.07261026e-001
      -9.54963207e-001 -4.82077241e-001 -1. -1. -9.32444870e-001
      -1.21783137e-001 -9.54963207e-001 -9.54963207e-001
      -9.77481604e-001 -9.32444870e-001 -9.77481604e-001 -1.
      -9.77481604e-001 -5.42279482e-002 -1. -9.54963207e-001 -1. -1.
      -9.54963207e-001 -1. -1. -1. -1. -9.54963207e-001 -7.07261026e-001
      -1. -1. -1. -9.09926474e-001 -1. -1. -6.39705896e-001
      8.08823109e-002 -5.04595637e-001 -6.39705896e-001 -6.62224293e-001
      -9.09926474e-001 -1.89338267e-001 -9.77481604e-001
      -9.32444870e-001 -9.54963207e-001 1.48437500e-001 -9.77481604e-001
      -9.77481604e-001 -9.77481604e-001 -9.09926474e-001
      -9.77481604e-001 -9.54963207e-001 -9.09926474e-001
      -2.11856663e-001 -1. -9.77481604e-001 -1. -1. -9.54963207e-001 -1.
      -1. -9.77481604e-001 -1. -9.77481604e-001 -6.62224293e-001 -1. -1.
      -1. -9.54963207e-001 -1. -9.77481604e-001 -5.72150767e-001
      -6.62224293e-001 -7.29779422e-001 -5.49632370e-001
      -5.27113974e-001 -9.54963207e-001 -5.49632370e-001
      -9.77481604e-001 -9.54963207e-001 -9.77481604e-001
      -2.79411793e-001 -9.54963207e-001 -1. -9.77481604e-001
      -9.09926474e-001 -9.77481604e-001 -1. -9.77481604e-001
      -2.11856663e-001 -1. -9.54963207e-001 -1. -9.77481604e-001
      -9.32444870e-001 -1. -9.77481604e-001 -9.32444870e-001 -1.
      -9.77481604e-001 -7.29779422e-001 -1. -1. -1. -9.32444870e-001 -1.
      -1. -5.94669104e-001 2.83547759e-001 -5.72150767e-001
      -5.94669104e-001 -7.52297819e-001 -8.87408078e-001
      -3.01930189e-001 -9.77481604e-001 -9.77481604e-001
      -9.77481604e-001 -5.94669104e-001 -9.32444870e-001 -1. -1.
      -9.09926474e-001 -9.54963207e-001 -9.54963207e-001
      -9.09926474e-001 -4.14522052e-001 -1. -1. -1. -9.54963207e-001 -1.
      -1. -1. -1. -1. -9.77481604e-001 -8.64889741e-001 -1. -1. -1.
      -9.09926474e-001 -9.54963207e-001 -1. -5.27113974e-001
      6.66360259e-001 -4.59558845e-001 -3.46966922e-001 -8.19852948e-001
      -9.32444870e-001 -5.72150767e-001 -9.54963207e-001
      -8.87408078e-001 -9.09926474e-001 -1.89338267e-001
      -9.09926474e-001 -9.54963207e-001 -1. -9.77481604e-001
      -8.87408078e-001 -9.54963207e-001 -9.32444870e-001
      -4.14522052e-001 -1. -9.32444870e-001 -1. -9.77481604e-001
      -9.54963207e-001 -1. -1. -1. -9.09926474e-001 -9.32444870e-001
      -7.97334552e-001 -1. -1. -1. -8.87408078e-001 -1. -9.54963207e-001
      -6.17187500e-001 -1.66819870e-001 -5.49632370e-001
      -2.11856663e-001 -7.52297819e-001 -9.09926474e-001
